0.00762887 0.00845361 0.00350515 0.00360825 0.00206186 0.00402062 0.00865979 0.000618557 0.00103093 0.00546392 0.00886598 0.00257732 0.00109631 0.0101685 0.0057732 0.0101031 0.0071134 0.00597938 0.00474227 0.000721649 0.00206186 0.00536082 0.00608247 0.00701031 0.000309278 0.00175258 0.00783505 0.0056701 0.00525773 0.00628866 0.00309278 0.00226804 0.00453608 0.00168058 0.00663536 0.00323329 0.00965865 0.00699847 0.00090126 0.00817029 0.00429963 0.00219455 0.011576 0.00794942 0.00781221 0.00267957 0.0097753 0.00777464 0.00795276 0.00504138 0.00469124 0.00745875 0.00814433 0.00536082 0.00556701 0.00381443 0.00298969 0.00525773 0.00907216 0.00231696 0.00798706 0.00531712 0.00735869 0.00494697 0.0132108 0.00817793 0.00148825 0.00694879 -0.00217375 0.00430939 0.00697392 0.0135311 0.0157225 0.0158186 0.0159681 0.0173378 0.00956811 0.00925897 0.0041301 0.0100232 -0.000148312 0.00431853 0.000515464 0.00123711 0.00164948 0.00835052 0.0038466 0.000755958 0.00786548 0.00811088 0.0112816 0.0116001 0.00527143 0.0109316 -0.00451308 0.00237044 -0.00296022 -0.00397931 -0.00321894 -0.00530215 0.0152137 0.015408 0.0201829 0.0263076 0.0118202 0.0124215 0.0111727 0.00690762 0.00279475 0.00564871 0.00685842 0.000618557 0.00886598 0.00546392 0.00291912 0.00750961 0.00966553 0.00638221 0.00183598 -0.00074578 -0.000608503 -0.00557319 -0.00209953 -0.00687394 -0.0229773 -0.00646221 0.00909084 -0.014521 0.00488949 -0.02035 -0.00200396 0.000821727 0.0180004 0.00521393 0.0039906 0.00641055 0.00899064 -0.00103185 0.00697787 0.00313712 0.00680412 0.0071134 0.00611499 -0.000887152 0.00989668 0.000935821 -0.00190976 -0.00148912 -0.0211007 -0.0304945 -0.0274804 -0.0151442 -0.0230568 -0.0264741 -0.0247866 -0.02624 -0.00647337 -0.0256263 -0.0200382 -0.0132409 -0.000695759 0.000131017 -0.00590242 -0.00216112 -0.00178258 0.00833746 0.00715735 0.00550825 0.000309278 0.00771441 0.00877631 0.00904663 0.00170111 -0.00958747 -0.00940765 -0.0172526 -0.0381392 -0.0288799 -0.0208889 -0.0304574 -0.0152694 -0.0576534 -0.0477026 -0.0664802 -0.0579755 -0.0552455 -0.0461565 -0.0313441 -0.04694 -0.0425718 -0.0263529 -0.0127524 -0.00168596 0.000527137 0.00968572 0.00935869 0.00731959 0.00432929 0.0077912 0.00767858 -0.00790445 -0.0164811 -0.0111378 -0.0257403 -0.0460081 -0.0294284 -0.0267752 -0.063373 -0.0654361 -0.0800975 -0.0856472 -0.0735984 -0.0807135 -0.0826613 -0.0443772 -0.0452294 -0.0401403 -0.0419596 -0.0296472 -0.0133245 0.00503369 0.0107934 0.00848714 0.00203013 0.00305538 0.0119908 0.00711179 0.00724839 0.000143806 -0.0130712 -0.0112557 -0.0284704 -0.0447716 -0.0336261 -0.0315122 -0.0634382 -0.0863286 -0.0767645 -0.0899559 -0.0784542 -0.092134 -0.0867757 -0.0572653 -0.0478189 -0.0430962 -0.0347518 -0.0081508 0.00111643 0.00970501 0.00178336 0.000838814 0.00220327 0.00546392 0.0082993 0.00758775 0.0156249 0.00533095 -0.00243273 -0.00292971 -0.0148693 -0.0354136 -0.0343089 -0.0506232 -0.066829 -0.0586034 -0.0533284 -0.056937 -0.078234 -0.0597618 -0.0759416 -0.0616399 -0.0561811 -0.03469 -0.0038931 0.00900836 0.00814284 0.00789546 0.0129476 0.00612792 0.0114026 0.00670103 0.00576458 0.00908595 0.0165087 0.00692701 0.00134199 0.0151788 -0.00388091 -0.0264637 -0.045948 -0.0516623 -0.0444123 -0.0342224 -0.0286289 -0.0160911 -0.0327249 -0.050523 -0.0478056 -0.0180989 -0.00366817 -0.0184157 0.00504611 0.00625184 0.023922 0.0209892 0.0204422 0.0139814 0.00592972 0.00958763 0.00415766 0.00641084 0.0232486 0.0200946 -0.00503148 0.00886989 0.00155578 -0.0449925 -0.0326179 -0.0370736 -0.0208989 -0.016025 -0.0112536 0.0200076 0.0017306 -0.0127706 -0.0113007 -0.00242454 0.00246185 -0.0132749 0.000698176 0.00226322 0.0204828 0.029762 0.0191412 0.0178 0.00850001 0.00329897 0.0115964 0.0121487 0.0149131 0.0165171 0.00432978 0.00259379 -0.0248789 -0.0127137 -0.0248794 -0.0113854 -0.00835384 -0.000110548 0.00147123 0.0275636 0.0199066 -0.0180647 -0.0268534 -0.00647208 0.00642457 -0.0199775 -0.0161474 -0.00292414 0.0156382 0.0218217 0.018995 0.0196427 0.0103351 0.00958763 0.00130328 0.00519087 0.0147579 -0.00476339 0.00953406 -0.00431001 -0.0344266 -0.0138959 -0.00890268 -0.0208233 0.0122162 -0.0135471 -0.0130236 0.00654265 -0.000908469 -0.0392177 -0.0341863 -0.0238939 -0.00254882 -0.0101225 -0.00977346 -0.00843653 0.0159272 0.0234729 0.0112846 0.0104661 0.00323005 0.0085567 0.00130128 0.00899884 0.00608336 -0.00243171 -0.00217532 -0.00929001 -0.0423036 -0.0375463 -0.0379998 -0.0163091 -0.00327405 -0.0306485 -0.0379102 -0.0222263 -0.0222712 -0.0457266 -0.0288767 -0.0213792 0.00571234 -0.0193239 -0.00173767 0.00243565 0.0145549 0.00583067 0.0101527 0.00684604 0.00931252 0.00731959 0.00407874 0.0069175 -0.0060017 -0.000687 -0.00394862 -0.0368078 -0.0423089 -0.0549513 -0.0378223 -0.0235635 -0.00907432 -0.0409396 -0.0199284 -0.022976 -0.0284656 -0.0461305 -0.0430389 -0.0272241 -0.000565954 -0.0149116 -0.00210899 -0.0085333 0.0129822 0.00613689 0.00404685 0.0024829 0.000708409 0.00752577 0.00943956 0.00912168 0.0020294 -0.0113133 -0.0028716 -0.0201863 -0.0347795 -0.0208203 -0.0337718 -0.0184373 -0.013152 -0.0411244 -0.0220029 -0.0165181 -0.0422991 -0.0512426 -0.024206 -0.028081 -0.00935082 -0.00641594 -0.00883127 -0.0126833 0.00586996 -0.00283894 0.00582778 0.00801241 0.00842874 0.00360825 0.00496884 0.00199 0.00608662 0.00438244 0.00432963 -0.0203799 -0.0244262 -0.0227619 0.00318329 -0.0140528 -0.03083 -0.0287919 -0.0200978 -0.0323785 -0.0556901 -0.0418158 -0.0515515 -0.0213732 -0.0148502 -0.027648 -0.0260178 -0.00221956 -0.00942043 -0.0119614 -0.00683377 0.00376974 0.00322538 0.00814433 0.00625093 0.0117546 0.0140189 0.00715578 0.00716712 -0.0216826 -0.007341 -0.0183661 0.00302495 -0.0150565 -0.022021 -0.000653737 -0.0225758 -0.0387174 -0.0542916 -0.0229857 -0.0237212 -0.0157768 -0.0190732 -0.00502253 -0.0237384 -0.0229163 -0.0153766 -0.0112271 -0.00370464 0.00521873 0.00992311 0.00525773 0.00341788 0.0110124 0.0115354 0.0104209 0.00851243 -0.0118112 -0.00769526 -0.00217796 0.0173339 0.00931633 -0.00296978 0.00828549 -0.012684 -0.0266629 -0.0496237 -0.0319454 -0.024523 -0.0125949 -0.0106651 -0.0193862 -0.0278046 -0.0275377 -0.0149154 -0.0123207 0.00683833 0.003741 0.00353843 0.000721649 0.00466125 0.00241034 0.00317863 0.01177 0.00916809 -0.00352408 0.00451926 -0.0108934 0.00618383 -0.0172237 -0.0249247 -0.0280913 -0.0284619 -0.0317144 -0.0400794 -0.0155757 -0.0127514 -0.0407083 -0.0264401 -0.0173432 -0.0333547 -0.0279982 -0.0147682 -0.00912485 0.00301639 0.00713414 0.00793814 0.00814433 0.00752577 0.0091124 0.00543333 0.00936317 0.0126148 -0.00254231 -0.00400959 -0.0172637 0.00190325 -0.0299246 -0.0150213 -0.0208945 -0.0249311 -0.0281566 -0.0283201 -0.0417899 -0.00259138 -0.00495367 -0.0407622 -0.0302959 -0.0406323 -0.0194286 -0.0171642 -0.0137193 0.00399099 0.00395201 0.00701031 0.00381443 0.00793814 0.00675966 0.00553691 0.00610979 0.0115316 -0.0127766 -0.0105727 -0.00990777 -0.0177433 -0.024306 -0.0310725 -0.0353169 -0.0294018 -0.00787535 -0.00109607 -0.00316331 -0.0242736 -0.0312112 -0.0337 -0.0225692 -0.031709 -0.0216178 -0.010425 -0.00517763 0.00538105 0.00490098 0.00783505 0.0042268 0.00824742 0.00876995 0.00113356 0.00594285 0.0159982 0.0150675 -0.00749061 -0.0187071 -0.0315356 -0.04629 -0.0385965 -0.037217 -0.041412 -0.00346567 -0.0158553 -0.0361182 -0.0331896 -0.0324938 -0.0301644 -0.0261306 -0.0197071 -0.0115663 -0.0114499 -0.00373509 0.00202658 0.00390483 0.00298969 0.00515464 0.00484536 0.000943998 0.00408143 0.0084637 0.00914251 0.014292 0.0133379 0.00183173 -0.0080259 -0.0100526 -0.0224181 -0.00985326 -0.0108216 -0.0110235 -0.0235657 -0.0259515 -0.0312922 -0.0142421 -0.0235982 -0.0203965 -0.0136306 -0.00484131 -0.00458925 0.00153526 -0.000203035 0.00744284 0.00402062 0.000309278 0.00402062 0.00215379 0.00959502 0.00561519 0.00986033 0.00416189 0.00752257 -0.00758182 -0.0113004 -1.39043e-05 -0.000139019 0.002674 0.00655703 0.0012288 -0.000585405 -0.000780481 -0.00213235 -0.00158191 0.00459413 0.0118209 0.00167928 0.0011339 0.00665723 -0.000212004 0.00672979 0.00188443 0.000824742 0.00783505 0.000927835 0.00226804 0.00159056 -0.000699768 0.000379509 0.00317963 0.005594 0.0097965 0.00618335 0.00503568 0.00279245 0.0130815 0.00575149 0.00117074 -0.00334498 0.00107457 0.00722394 0.00147604 0.010262 0.00967203 0.0091612 0.00335685 0.0113594 0.00720159 0.000824742 0.00773196 0.0057732 0.0014433 0.00927835 0.00773196 0.00123711 0.00649485 0.00586685 0.00668275 0.00416108 0.00428006 0.00876237 0.0093927 0.00560634 0.0119999 0.00297051 0.00372771 0.000249551 0.00509127 0.00528856 0.00521385 0.00811425 -0.000634942 0.00754736 0.00977512 0.00318662 0.00824742 0.00907216 0.0043299 0.00134021 0.000206186 0.00463918 0.00639175 0.00360825 0.00927835 0.00103093 0.00742268 0.0043299 0.01 0.00268041 0.00618557 0.01 0.00268744 0.00784208 0.00628866 0.00371134 0.0028866 0.00742268 0.00185567 0.00494845 0.00701031 0.00237113 0.00938144 0.00783505 0.0101031 0.00773196 0.000721649 0.00969072 0.00412371 0.00298969 0.00278351 0.000309278 0.00237113 0.010335 0.00744694 0.00889024 0.0101285 0.00564765 0.00589524 0.008452 0.00904107 0.0422259 0.0447987 0.0496976 0.0453481 0.0402757 0.00341832 0.00561805 0.00171094 0.00470024 0.00851956 0.000441073 0.000515464 0.00927835 0.00628866 0.00793814 0.00515464 0.00938144 0.00938144 0.00361137 0.00866291 0.00494475 0.00338373 0.00856798 -0.014543 -0.0245657 0.00332927 0.00208582 0.203959 0.180951 0.201875 0.0738977 0.142857 0.110599 0.146182 0.0709059 0.0358304 0.000457344 0.000216055 -0.000922477 0.00886264 0.0048792 0.00628866 0.000721649 0.0056701 0.00680412 0.00649484 -0.0143349 -0.00900346 -0.0298161 -0.0616787 -0.0171737 -0.0103334 -0.0115404 0.0782184 0.31429 0.25425 0.199006 0.246918 0.249038 0.223427 0.184314 0.223794 0.0365478 0.082177 0.0377028 -0.0552194 -0.0175311 0.00839782 0.00858022 0.00546803 0.00268041 0.00494845 0.00752577 0.00319591 -0.0183729 0.0227373 0.0275006 0.0447685 0.0185041 0.00261917 -0.052534 0.311784 0.380361 0.210654 0.062928 0.0374582 -0.0290815 -0.0159917 -0.0651282 -0.0841101 -0.0404781 -0.0104297 0.0455207 -0.0139585 -0.0593526 -0.132936 -0.00837071 0.00561278 0.00650935 0.00814433 0.00309278 0.00113405 -0.0187538 0.0512587 -0.0206002 -0.00576001 0.111953 0.111874 0.180998 0.482625 0.242091 0.0894044 0.0466207 -0.0116035 -0.222259 -0.0491548 -0.0844154 -0.163141 -0.0261537 -0.155534 -0.0221449 0.0702188 -0.073402 -0.148489 -0.0106782 0.00419721 0.00176708 0.00938144 -3.90146e-05 0.00162308 -0.0168154 0.0111756 -0.0113929 0.0360076 0.16329 0.0794162 0.1842 0.342736 0.231122 0.254445 0.105946 -0.309769 -0.215346 -0.162953 -0.389191 -0.387222 -0.515455 -0.0756792 -0.412345 -0.173565 0.0408647 0.0253987 -0.0155714 0.007091 0.000826915 0.00896907 0.00558733 0.00467733 -0.0203553 0.0858444 0.207438 0.301186 0.041617 0.161434 0.201709 0.15376 -0.00245911 -0.448846 -0.49735 -0.195001 -0.300854 -0.0853037 -0.0843078 -0.185086 -0.345205 -0.134108 -0.219158 -0.259886 0.135992 -0.0180217 0.0677709 -0.00938679 0.00048358 0.00054209 0.00655176 0.00209983 -0.00862286 0.185021 0.339543 0.319285 0.119743 0.0901584 0.163153 -0.0378595 -0.356976 -0.42764 -0.293263 -0.506243 -0.186099 -0.0966758 -0.210542 -0.0791856 -0.144712 0.0498131 -0.019429 0.0660682 0.386112 0.0891093 0.00934094 -0.0164177 -0.00078775 0.0071134 0.00854442 0.00909527 -0.0145373 0.243842 0.256502 0.234017 0.493562 0.264554 -0.0297945 -0.123009 -0.337208 -0.248669 -0.220183 -0.211805 -0.256588 -0.270988 -0.253422 0.05362 -0.0502475 0.0214266 -0.0289086 0.338479 0.336294 0.248432 0.0293266 -0.0166675 0.0043014 0.000515464 0.00234302 0.00693093 -0.0213602 0.213024 0.0609949 0.258072 0.574302 0.174886 0.122642 -0.289873 -0.35929 -0.351137 -0.251899 -0.38426 -0.286203 -0.189816 -0.0634858 0.0271363 0.148593 -0.0539492 0.0988538 0.226805 0.697378 0.443945 -0.0333167 -0.00831288 0.00770538 0.00783505 0.00507716 0.00650776 0.0486086 0.212665 0.289025 0.593655 0.774519 0.287117 0.0654333 -0.431385 -0.416015 -0.31809 -0.492571 -0.276442 -0.281379 -0.102423 -0.095447 -0.235503 -0.136243 -0.397107 -0.218278 0.268557 0.618334 0.85172 0.105499 -0.00288384 0.00593079 0.00525773 0.0125399 0.00646192 0.0751947 0.282214 0.438373 0.751543 0.443059 0.435487 -0.202225 -0.380307 -0.596073 -0.5494 -0.454379 -0.390155 -0.388491 -0.294434 -0.190862 -0.294584 -0.282206 -0.643255 -0.331342 -0.0230133 0.59249 0.825894 0.167558 -0.00598037 0.0080139 0.00278351 0.00566752 0.0407355 0.0762482 0.32166 0.695877 0.843826 0.328278 -0.0288308 -0.532714 -0.767426 -0.726482 -0.657571 -0.199687 -0.392423 -0.265077 -0.0936731 -0.218819 -0.328116 -0.571549 -0.48344 -0.472277 -0.00208987 0.499829 0.651958 0.154835 -0.000529265 0.00810112 0.00206186 0.00554523 0.0319537 0.0539747 0.221243 0.695608 0.966845 0.410824 -0.0821322 -0.677666 -0.594668 -0.287699 -0.36453 -0.229175 -0.130022 -0.123942 -0.222718 -0.266476 -0.296833 -0.514255 -0.404084 -0.423801 0.216379 0.610826 0.485511 0.118018 0.00799176 0.00892587 0.00463918 0.00189051 0.0344252 0.0178588 0.502197 0.909101 0.950915 0.639485 0.0414879 -0.628328 -0.605871 -0.468234 -0.398894 -0.261862 -0.139138 0.0281279 -0.0468803 -0.123689 -0.415414 -0.397258 -0.245325 -0.191583 0.238111 0.286079 0.103384 0.124782 0.00678251 0.00952696 0.00340206 -0.00027444 0.0262862 -0.0420104 0.37012 0.844128 0.905461 0.628418 -0.190622 -0.847257 -0.537283 -0.380205 -0.363431 -0.115946 -0.247188 0.0192361 -0.173662 -0.319196 -0.428497 -0.297217 0.00371648 -0.137042 0.185507 0.303493 -0.0562501 0.186213 0.0061416 0.00791996 0.0071134 0.00735443 0.0274676 -0.0350818 0.312279 0.698779 0.725301 0.631067 -0.0392594 -0.464373 -0.278383 -0.264649 -0.270719 -0.00977523 -0.00449173 0.10658 -0.0292505 -0.0389263 -0.00478494 -0.121159 -0.122023 0.014395 0.352562 0.348065 0.20317 0.16488 0.00788612 0.00592339 0.00474227 0.00546392 0.0282872 -0.00498514 0.262497 0.351168 0.770855 0.607753 0.061853 -0.0391591 0.00373973 -0.00860438 -0.189924 -0.112648 -0.0607118 -0.0266629 0.103596 0.125179 0.0558062 -0.0902234 0.0542799 0.24811 0.28242 0.140105 0.0353797 0.0608485 0.0108817 0.00790864 0.0071134 0.00495614 0.0283415 0.0186688 0.263861 0.224909 0.572117 0.253706 0.351131 0.0151667 0.154658 0.181517 0.0451524 0.135027 0.140824 0.182381 0.13848 0.0354975 0.00147763 -0.149493 0.10171 0.180171 0.316838 0.457677 -0.0308394 0.0272585 0.00520678 0.00488898 0.00381443 0.00299452 0.0298991 0.0300129 0.201265 0.101154 0.210529 0.288748 0.317961 0.0805331 -0.189939 -0.0676193 -0.281431 -0.216159 -0.144718 0.00738584 -0.184915 -0.0837247 -0.112544 -0.0803034 0.0906601 -0.088777 0.273247 0.166593 -0.0137713 0.0107261 -0.000129118 0.00257732 0.00216495 0.00690722 0.0350917 0.0553713 0.1667 -0.0625189 0.190425 0.297332 0.329975 0.202232 0.0513623 -0.284698 -0.435052 -0.318972 -0.340709 -0.188892 -0.0785484 0.0426324 -0.0172537 -0.0651412 -0.0568726 -0.179766 -0.144416 -0.106574 -0.0222974 0.00729855 0.00381382 0.0042268 0.0056701 0.000103093 0.0090615 0.0273886 0.0321737 0.0811322 0.124073 0.320089 0.361471 0.218825 0.145243 0.054951 -0.37706 -0.334745 -0.389871 -0.309024 -0.248965 -0.137591 -0.227725 -0.0888025 -0.0429754 -0.237566 -0.169143 -0.108887 -0.07526 -0.00987534 0.00326743 0 0.00164948 0.00237113 -0.000181972 0.0209037 0.0190765 0.0790676 0.0589022 -0.0348241 0.113167 0.202201 0.0521775 0.0141535 0.128015 0.0666415 -0.17115 -0.242151 -0.0879211 0.00461586 0.0244531 -0.204381 -0.241741 -0.149287 -0.0445314 0.0286957 0.0312245 -0.00105257 -0.00398617 0.00402062 0.0028866 0.00907216 0.00627513 0.038911 0.0489869 0.0120977 0.0666782 0.155665 0.142138 0.2428 0.19491 0.30982 0.215383 0.116363 0.121669 -0.0552918 -0.0523919 -0.0831681 -0.0344215 -0.0627989 -0.0769735 0.00581175 0.0131802 0.0278952 0.0221096 0.00476746 0.00348523 0.00453608 0.00206186 0.00237113 0.00618352 0.00283087 0.0359159 0.0619693 0.0562646 0.120965 0.189774 0.145859 0.237682 0.204412 0.12644 0.0473724 0.0502975 0.0355153 0.00803025 -0.0475976 -0.0534659 0.0151576 0.119608 0.0912359 0.0889504 0.0309334 0.0143239 0.0098777 0.00606327 0.00546392 0.00804124 0.00381443 0.00742268 0.00235323 0.00830333 -0.00338189 0.0525016 0.061284 0.0562734 0.0566976 0.061531 0.020088 -0.0107025 -0.00437563 -0.00245789 -0.0223115 -0.0280926 -0.0376473 -0.0350246 0.0231685 0.0195769 -0.000649659 4.74026e-06 0.00615578 0.0101697 0.00474227 0.00969072 0.00360825 0.00164948 0.00443299 0.00391753 0.00247423 0.00608247 0.00394061 0.00836984 0.0252275 0.0272021 0.0295199 0.02664 0.00622858 0.0130107 0.00826511 0.0140529 0.00874485 0.00832933 0.00590555 0.00876218 0.00625963 0.0186381 0.0102311 -0.00589744 0.00790594 0.00113402 0.00350515 0.00587629 0.00381443 0.00494845 0.00113402 0.00907216 0.0056701 0.00226804 0.000206186 0.00515464 0.00381443 0.00948454 0.00463918 0.00298969 0.000309278 0.00640394 0.00661013 0.00505155 0.0085567 0.00113402 0.00474227 0.00948454 0.00268041 0.00391753 0 0.00515464 0.00412371 0.00958763 0.00123711 0.00876289 0.00752577 0.00525773 0.00752577 0.00371134 0.00587629 0.00237113 0.0155705 0.028263 0.0273351 0.0256364 0.0126844 -0.0129232 -0.0103431 0.000336874 0.0380472 0.0292462 0.0367964 0.0393647 0.0426282 0.00487344 0.00757198 0.00936927 0.00542009 0.012939 0.0133308 0.00845361 0.00164948 0.00783505 0.00639175 0.00835052 0.00649485 0.0101031 0.000903972 -0.000126956 0.0312592 0.0263994 0.0295958 0.048556 0.0286838 0.0544946 0.128038 0.208631 0.264418 0.268627 0.203395 0.227056 0.165917 0.183911 0.0628131 0.0280576 0.00606929 0.0107053 0.0147195 -0.00043402 0.00501111 0.00329897 0.00938144 0.0071134 0.00628866 0.00195869 0.00179405 0.0172766 0.00568608 0.0010617 0.0160295 0.121479 0.038322 -0.0902374 0.189993 -0.00325772 0.112478 0.275517 0.0827048 -0.0188308 -0.0804903 -0.102049 -0.123931 0.0403311 -0.0140162 -0.0646361 -0.0119674 -0.00450835 0.02044 0.00521783 0.00309278 0.01 0.00814433 0.00268737 0.00460041 0.0728742 0.11962 0.119343 0.0365268 0.368587 0.502632 0.533383 0.52475 0.346495 0.119024 0.124456 -0.0929904 -0.243952 -0.209473 -0.103382 -0.119535 0.104214 -0.0118945 -0.0498215 0.0165341 -0.00995334 0.0161468 0.00269982 0.0109984 0.00525773 0.00195876 0.00804819 -0.0342035 -0.0209877 0.0090674 -0.136277 -0.127154 0.203159 0.706611 0.547459 0.300965 -0.330334 -0.473777 -0.264489 -0.300072 -0.405469 -0.325843 -0.201568 -0.261436 0.0841386 -0.0551941 -0.0937725 -0.0415699 0.00276336 0.0189124 0.00919794 0.00223553 0 0.00765173 0.00925744 -0.137495 -0.0467869 -0.108427 -0.215075 0.108279 0.380087 0.980738 0.70153 -0.0183861 -0.515364 -0.664287 -0.52419 -0.5148 -0.301529 -0.0210189 -0.14099 -0.055881 -0.0394203 -0.126198 -0.0626643 -0.076928 0.00686439 -0.00514945 0.0062512 0.00880966 0.00783505 0.00877997 0.0116385 -0.11928 -0.200742 -0.0712005 -0.263373 -0.420304 0.15299 0.428518 0.383435 -0.180933 -0.8019 -1.08409 -0.784432 -0.610666 -0.516805 -0.381023 -0.155529 -0.158453 0.142233 -0.0182132 -0.0869703 -0.0829336 -0.0685503 -0.0336448 0.00929851 0.00593971 0.00539354 0.0106861 0.0242926 -0.181957 -0.127836 -0.133577 -0.420653 -0.286595 0.502913 0.491271 0.349469 -0.358209 -0.591223 -0.958201 -0.686392 -0.195984 -0.00566471 0.00649047 -0.0356349 0.0264311 0.231309 0.0715983 -0.151499 -0.115078 0.0471708 0.0121905 0.0160355 0.00678669 0.00505155 0.0135735 -0.0617899 -0.0106354 -0.161709 0.030125 -0.512571 0.0515432 0.288468 0.504256 0.338766 0.325164 -0.524244 -0.883483 -0.29778 -0.29561 0.0230464 -0.0905811 0.118316 0.12876 -0.0684201 0.0692605 0.0109346 -0.0890372 0.143161 0.0628955 -0.00169518 0.0093896 0.00463918 0.00429392 -0.0455402 0.0468718 -0.0333064 -0.0229439 -0.282528 -0.183674 0.0734162 0.521626 0.124433 0.101273 -0.0814132 -0.590996 0.0414166 -0.0178928 -0.121171 -0.000193634 0.0672336 0.186913 -0.156256 0.244497 0.0083205 -0.0110726 0.0680851 -0.0229015 -0.0235219 0.00724015 0.00515464 0.0158474 0.0309718 0.0855244 -0.0392703 0.00457774 -0.361589 -0.171207 0.175199 0.215761 0.578469 0.0516529 -0.0798193 -0.245519 0.12955 -0.0492155 -0.103065 -0.195449 0.0312984 0.0854483 0.0347893 0.105516 0.206441 0.0770485 0.0867526 -0.0509284 -0.0222263 -0.0153287 0.000515464 0.0132952 0.0279257 0.0715727 -0.0398069 0.0295674 -0.266815 -0.0873447 0.179443 0.390495 0.454201 0.0611217 0.0144527 -0.170479 -0.356571 0.0563069 -0.0120426 -0.0286767 0.208029 -0.0591174 0.197242 0.193251 0.222108 0.137047 -0.0622368 -0.0499528 -0.0425192 -0.0241338 0.00340206 0.00295293 0.0256314 0.0330309 -0.0375982 0.0316354 -0.204551 -0.176409 0.0694665 0.0268376 0.064167 0.204672 0.228791 -0.168126 -0.442212 0.101023 0.124152 -0.144495 0.0502613 -0.368174 0.0625428 0.050656 0.240516 0.0666332 -0.0859578 -0.0566995 -0.0400535 -0.00241476 0.000824742 0.00585778 0.015303 0.0646876 -0.0830409 0.0962412 -0.212807 0.0492625 -0.0315734 0.152326 0.356386 0.33452 0.122204 -0.0999617 -0.212825 -0.0475309 -0.0809276 0.106238 0.107577 -0.157742 -0.117186 -0.0643723 -0.0623872 -0.0317272 -0.0739243 -0.188299 -0.021665 -0.00447661 0.00185567 0.000382426 0.0109875 0.0140805 -0.0291799 -0.030807 -0.222117 0.0396678 0.238996 -0.176223 0.0750437 -0.0399133 -0.457323 -0.333211 -0.308465 -0.292712 -0.0623408 0.294392 -0.35039 0.0160375 -0.246812 -0.150769 -0.175419 -0.0623216 -0.0364854 -0.185351 -0.0417353 0.0065186 0.0056701 0.00832057 0.00653221 -0.014754 -0.00588165 -0.105984 -0.42861 0.102909 0.031077 0.010874 -0.0871839 -0.206627 -0.485774 -0.155548 -0.148249 -0.134587 -0.027043 0.0354782 0.118956 -0.0513555 -0.4314 -0.13741 -0.388116 -0.107001 -0.232785 -0.0552635 -0.0334616 -0.00380904 0.00587629 0.000889077 0.00478867 -0.0255819 -0.0338339 -0.113958 -0.0405042 -0.101931 -0.148936 0.0193791 0.0347454 -0.128428 -0.595855 -0.0253688 -0.011633 0.316448 0.113733 -0.030621 -0.133117 -0.108277 -0.092807 -0.160809 -0.2062 0.12335 -0.103232 0.0133491 0.000178705 -0.000365075 0.00948454 0.00813552 0.00170411 -0.0303935 -0.0658345 -0.12392 -0.101819 -0.0918551 0.179711 -0.0313344 0.034168 -0.130909 -0.363877 -0.182907 0.0840161 0.456665 0.321681 -0.28079 -0.213366 -0.0701988 -0.127153 0.000594765 -0.0255142 0.016117 -0.0725045 -0.0468166 -0.00561614 0.00143924 0.00226804 0.00847173 0.0150456 -0.0366437 -0.0686199 -0.191014 -0.0521692 -0.0841784 -0.11797 -0.213691 -0.08968 -0.245745 -0.383761 -0.00337426 0.290296 0.198826 0.265997 -0.128408 -0.0818582 0.0967914 0.0290947 0.0322383 -0.0515472 0.00573895 -0.0323433 0.0826234 -0.00202245 0.00287451 0.00515464 0.0020698 0.0221275 -0.0371026 0.0112 -0.0661978 0.179886 -0.0397543 -0.13628 -0.0565927 -0.285868 -0.319085 -0.317559 0.0783803 0.171855 0.399742 0.354671 0.330195 -0.0250354 0.32772 -0.163875 0.0062435 0.0841556 -0.00745143 0.0380044 0.0019291 -0.0138286 0.00865979 0.0014433 0.00907216 0.0161497 -0.0229372 0.0176323 0.0499684 0.023713 0.0925559 -0.149371 -0.0903212 -0.19571 -0.363959 -0.129325 -0.00177929 0.143938 0.213168 0.164213 0.0819119 0.00534625 0.312674 0.22174 0.205821 0.127363 0.0273957 0.065707 0.0175134 0.00461317 0.00762887 0.00237113 0.00257732 0.00587272 -0.0122643 0.11262 0.118846 -0.0387404 -0.133553 -0.163571 -0.271854 -0.299749 -0.390758 -0.297875 -0.218007 -0.271847 -0.054919 -0.196983 -0.0106495 -0.0836008 0.0487907 -0.113755 0.0115826 -0.0258715 -0.0857135 0.0435539 0.00300654 -0.000330478 0.00195876 0.00257732 0.00412371 0.00310996 0.0116772 0.0224719 0.0325666 0.0675845 -0.077951 -0.142081 -0.365627 -0.433418 -0.27082 -0.115236 -0.11895 -0.15241 -0.161699 0.105623 0.13527 0.240977 0.0882715 -0.0272904 0.0786844 0.00407648 0.0310914 -0.0284701 0.0134228 0.0019211 0.00814433 0.00402062 0.00257732 0.00532339 0.0215171 0.0105239 0.0447801 -0.0261194 -0.0339574 -0.0643703 -0.0819664 -0.182972 -0.0459856 -0.164101 0.122864 -0.0227636 -0.0775678 0.0489197 0.0646137 0.0480063 -0.00741228 0.0916972 -0.0252564 0.0535225 -0.0256848 -0.0175171 -0.00289806 0.00385714 0.000618557 0.00670103 0.000206186 0.002515 0.00224152 0.0106912 0.0662039 0.0622524 0.0696915 0.0716613 -0.0427129 0.000937204 0.135422 -0.015589 0.156363 0.144627 -0.0056136 0.111187 0.073289 0.0725188 0.0335774 -0.18428 -0.183006 -0.0254554 0.0101181 0.00836784 0.00361383 0.00784063 0.00752577 0.00206186 0.00453608 0.00659794 0.00691316 0.00663058 -0.00477657 0.0553687 0.0659257 0.0582874 0.0140952 -0.000185314 0.0713956 -0.0299945 -0.0364076 -0.0919819 -0.0786307 -0.00695751 -0.108425 -0.0750372 -0.0439307 -0.117417 -0.0349025 -0.00818863 0.00811154 0.00798916 0.00804124 0.00721649 0.000515464 0.00515464 0.0102062 0.01 0.00340206 0.00103093 0.00414674 -0.00298661 0.0457718 0.0548244 0.0682749 0.0483137 0.0054584 0.0286155 0.0112421 -0.00390308 -0.0179874 -0.0318797 -0.00579075 0.000703753 0.00169502 0.00552787 0.0149101 0.0155989 0.00832283 0.00608247 0.00247423 0.000206186 0.00113402 0.00195876 0.00969072 0.00948454 0.00659794 0.000309278 0.00329897 0.00515464 0.00195876 0.000206186 0.00154639 0.00793814 0.00381443 0.000196653 0.00761933 0.00731959 0.00824742 0.00639175 0.000618557 0.00474227 0.00175258 0.00113402 0.00402062 0.00835052 0.00587629 0.000103093 0.00134021 0.00762887 0.00865979 0.00226804 0.0014433 0.000103093 0.00814433 0.00907216 0.00161507 0.0010658 0.00426167 0.00421176 0.00665092 0.00146126 0.00292991 0.00245516 0.00754244 0.00380487 -0.00564086 0.00162555 -0.00207513 0.00652328 0.00162944 0.00848426 0.00184941 0.00523378 0.00695708 0.00835052 0.00731959 0.00226804 0.00556701 0.00659794 0.0101031 0.00484536 0.00266413 0.00225176 0.000580618 0.00651399 0.00104568 0.00846754 0.011607 0.0233923 0.0252364 0.0209349 0.0181721 -0.00456968 0.0116708 0.0036494 -0.00893759 0.00150906 0.00373564 -0.00573718 0.0020707 7.41597e-05 0.00689594 0.0020447 0.0075903 0.00443299 0.00824742 0.00216495 0.00773196 0.0095863 0.00557386 0.000520118 0.0039853 0.00602906 -0.0170914 -0.0100051 -0.0318607 -0.0141229 -0.083964 0.0300464 0.000345065 -0.022525 -0.0166618 0.00396256 0.0708068 0.0557247 0.00172997 0.00715779 0.0430652 0.0228053 0.0498873 0.0414091 -0.00446962 0.00221085 0.00762887 0.00979381 0.00701031 0.00176772 0.00456849 0.0101961 0.00591482 -0.0018078 -0.0123935 0.0236998 -0.0662706 -0.0638474 0.00170555 0.138693 0.031108 -0.0623718 0.0136048 0.01119 -0.00837148 0.0173681 -0.0495087 0.0592089 0.16478 0.1113 0.00371958 0.0325473 -0.0455575 -0.0183924 0.0180588 0.00412371 0.000412371 0.00764401 0.00369021 -0.000872957 -0.00530083 -0.0198604 -0.0486716 -0.0107281 -0.095712 -0.0654284 -0.0328045 0.0394486 0.0257044 0.0645965 -0.0780746 -0.131682 -0.173703 0.0424114 -0.0108871 -0.150344 0.056959 0.165454 0.136697 0.0963487 0.0450762 0.0267407 0.0181619 0.0102062 0.00509545 0.0169274 0.0160994 0.00950728 -0.0415038 -0.0732737 -0.160189 -0.209618 -0.197005 -0.157158 -0.0246075 0.0931711 -0.0947611 0.00346518 -0.308136 -0.245825 -0.17919 -0.133346 0.0842709 0.121986 0.00718915 0.159325 0.169506 -0.0732648 0.0919353 0.0691617 0.0113298 0.00907216 0.0167329 0.0161937 -0.00174524 0.0253213 -0.0364304 -0.0364238 -0.0251803 -0.259847 -0.216153 -0.119588 0.0884694 0.00129367 -0.148711 -0.0320244 -0.16691 -0.283398 -0.0638008 -0.0432222 -0.0709246 -0.0991042 0.0463262 0.204471 0.178578 -0.102764 -0.0100624 0.0408885 0.0168807 0.0102769 0.018657 0.0183269 0.00216283 -0.0163796 -0.0097006 0.0565473 -0.0209751 -0.131701 0.0271888 -0.113052 0.115718 -0.0138949 0.231459 0.0978099 -0.199708 -0.157165 -0.214648 -0.189749 -0.452638 -0.287204 -0.194264 -0.0387305 0.0945174 -0.0851744 0.0179802 0.0937753 0.00497581 0.00309278 0.00979178 0.00756867 0.00909438 -0.0597907 0.061533 0.168568 0.0499738 0.00526338 0.162466 0.0480085 0.0201527 0.130732 0.203672 0.0615909 -0.0937938 -0.120905 -0.00122931 0.0722968 -0.210139 0.0116612 -0.0973036 0.181703 0.0125505 0.0221622 0.0411667 0.0508581 0.0173413 0.00443299 0.00903071 0.0104954 -0.0105864 -0.0903971 -0.017267 0.039051 0.045348 0.0722204 0.131142 0.16449 0.194477 0.256043 0.2505 -0.0296884 -0.0230881 -0.090471 0.0111769 0.0500695 -0.0362167 -0.0579737 0.103294 0.0135929 -0.0709484 -0.0653239 -0.0451856 0.0280605 0.0353543 0.00804124 0.00955351 0.00876967 -0.00110529 -0.0624489 -0.075472 0.0467802 0.130221 0.00702665 -0.0526317 -0.0131827 -0.0631725 -0.261789 0.00334378 -0.139035 -0.0217209 -0.0249379 0.0909392 0.00151883 -0.212586 -0.0490669 0.0733154 -0.169961 0.0611138 -0.0844037 -0.0502264 0.0259761 0.0220433 0.00742268 0.00191765 0.0101135 -0.032951 -0.076675 0.0050987 0.00330963 -0.0494852 0.0497014 0.105535 -0.213086 -0.0920412 -0.214065 -0.361814 -0.157488 -0.253577 0.0599197 0.093755 -0.013555 -0.0882372 0.123232 0.00774278 -0.0729567 -0.0135134 0.0721904 0.0820801 0.0285463 0.0165894 0.00608247 0.00286454 0.0125778 -0.0266102 -0.0578145 -0.102151 -0.0772658 -0.121765 -0.0419042 -0.0852582 -0.177882 -0.351899 -0.29489 -0.337308 0.158911 0.013215 0.181152 0.168667 0.0143264 0.177452 -0.0429914 -0.0749092 0.113337 0.157659 0.115477 0.0291645 0.0439596 0.0129203 0.00546392 0.000341065 0.00385017 -0.0198766 -0.0668646 -0.128873 -0.0921666 -0.149039 -0.204238 -0.160864 -0.432675 -0.317957 -0.114888 0.0143868 0.352673 0.129532 0.174875 0.0942998 0.0141914 -0.166367 -0.0638555 0.0577603 0.0442685 0.0779631 0.0117575 0.00647315 0.0428009 0.0098275 0.00278351 0.000455849 0.000671137 -0.0286877 -0.0674319 -0.0809665 -0.172338 -0.304501 -0.323806 -0.394809 0.0554214 -0.0606687 0.0772691 0.137635 0.0966936 0.0483802 0.241202 -0.267807 -0.224718 -0.163573 -0.143557 0.0210627 0.0780191 0.0633927 0.00690855 0.0139159 0.0104438 0.00996031 0.00309278 -0.00201838 0.00280264 -0.0338218 -0.106971 -0.14864 -0.343484 -0.380725 -0.252011 -0.17954 0.408197 0.45223 0.439602 0.383105 0.0836824 -0.0385842 -0.223632 -0.484876 -0.272164 -0.243728 -0.176533 -0.0722745 0.0083351 0.0443717 -0.0214617 0.0220217 0.0310728 0.00922461 0.00917526 0.00480767 0.00763267 -0.0419886 -0.1463 -0.235325 -0.270396 -0.253973 -0.106352 0.336972 0.332977 0.514019 0.210232 0.13156 -0.113021 -0.30811 -0.360123 -0.184315 -0.273273 -0.170291 -0.17114 -0.0480216 0.0041575 0.0384623 -0.0393243 0.00475868 0.025141 0.0065845 0 0.00672295 -0.000547449 -0.0470249 -0.114518 -0.250276 -0.192515 -0.102597 0.215396 0.387628 0.399054 0.447717 0.0726683 -0.399571 -0.141161 -0.467454 -0.219556 -0.0929193 -0.0470486 -0.111121 0.033359 0.155099 0.101369 0.0988418 0.063884 0.00244123 0.0195276 0.0130567 0.00835052 -0.000145673 0.00325882 -0.0347138 -0.0895241 -0.1656 0.00645086 0.155028 0.356988 0.529969 0.320522 0.032294 -0.113541 -0.427707 0.0584775 -0.140806 -0.0192484 -0.0860509 -0.075285 -0.0983923 -0.0523498 0.0814607 0.0831977 -0.0454428 -0.0102488 -0.0487339 0.0074486 0.00785032 0.00463918 0.00829269 0.00936737 -0.0236501 -0.0379183 -0.0302221 0.128144 0.16846 0.0613225 0.38121 0.387673 0.000798198 -0.270884 -0.0964713 -0.115787 -0.231551 0.162992 -0.226414 0.0124867 0.0678407 -0.0487194 0.0169563 0.0214406 -0.0374909 -0.0489874 -0.0262305 0.00736763 0.000515464 0.00134021 0.00391753 0.00890382 0.00717693 0.0265133 0.07831 0.233454 -0.00351712 0.183585 0.155442 0.155947 -0.0379084 0.00655226 -0.161667 -0.364498 -0.173289 -0.105302 -0.237563 -0.0238424 0.0932721 -0.0720989 -0.0310506 0.0243599 -0.0281796 -0.0229192 -0.0254762 0.00891294 0.00958763 0.000412371 0.0014433 0.013716 -0.00230485 0.0806486 0.0222544 0.0066689 0.228754 0.178636 0.199936 0.232044 0.10619 0.154756 0.0199677 0.0295162 -0.250632 -0.216837 -0.270629 -0.0908181 -0.0774959 -0.0484898 -0.0977917 -0.0224987 -0.0202434 -0.052266 -0.0212592 0.00310497 0.00608247 0.00731959 0.00474227 0.0101556 0.0148768 0.0291406 0.0739931 0.0116922 -0.0338709 0.111549 0.0878124 0.193804 0.29635 0.216356 -0.0533085 -0.0135069 -0.106142 -0.206061 -0.315748 -0.155832 -0.204808 -0.00721269 -0.062597 -0.0314304 -0.0444534 -0.0607561 -0.014471 0.00020965 0.00515464 0.00618557 0.00268041 0.0043811 -0.0296515 -0.0638411 0.0483911 0.189913 -0.117199 -0.0714257 0.05376 0.138215 0.140689 0.0357512 0.153503 0.109414 -0.124806 -0.202578 -0.118249 -0.145029 -0.167529 -0.0601069 -0.0784331 -0.119264 -0.015986 -0.0246719 0.0215131 0.0218745 0.00721649 0.00618557 0.00164948 0.000992993 0.010089 0.0299776 0.0631545 0.0482669 -0.204016 -0.0607058 0.0123048 0.0354288 0.0142942 -0.163918 0.0979023 -0.0636435 -0.0500434 -0.150147 -0.158889 -0.151666 -0.147149 -0.103205 -0.105308 -0.0626775 -0.0466744 0.00577603 0.017305 0.0183359 0.00391753 0.00742268 0.0085567 0.00752577 0.00220137 -0.0239001 0.00403666 -0.0287938 0.0134094 0.0468412 0.0317118 -0.0355185 -0.0472566 -0.0386637 -0.0470917 -0.0899247 -0.111794 -0.109998 -0.0789132 -0.058706 -0.0143422 -0.0237837 -0.0306361 -0.0106208 0.00359484 0.00492453 0.00515464 0.00278351 0.00721649 0.00546392 0.00628866 0.00319588 0.00762887 0.00824742 0.00588839 0.003507 0.00666956 0.00163466 0.00326739 0.0147587 0.0119648 0.0232366 0.0138246 0.00277578 0.00754814 0.00180283 -0.0172546 -0.0135164 -0.0172508 -0.0119152 -0.00730154 0.00463016 0.00276069 0.00556701 0.00463918 0.00927835 0.00979381 0.00556701 0.00195876 0.00979381 0.0043299 0.00371134 0 0.0043299 0.00113402 0.00762887 0.00876289 0.00783505 0.00969072 0.00573963 0.0032654 0.00670103 0.00134021 0.00989691 0.000412371 0.0028866 0.00319588 0.00164948 0.00649485 0.00659794 0.0057732 0.00371134 0.00989691 0.00876289 0.00412371 0.000206186 0.00845361 0.00154639 0.00917526 0.00670103 0.00309221 0.00628987 0.000516669 0.0089525 0.00550381 0.00846281 0.00661087 0.000544132 -0.000874424 0.00473627 0.00831911 0.00364607 0.000954291 0.00183513 0.00190024 0.00911095 0.00880396 0.00875775 0.00246197 0.0071134 0.00195876 0.0014433 0.00103093 0.00350515 0.00123711 0.00195876 0.00513259 0.00554496 0.00397449 0.00409235 0.00590004 -0.00162094 0.00260022 0.00523996 -0.00196566 0.00492388 -0.00149577 -0.00413443 0.000764222 -0.00272963 -0.00242419 0.00188968 0.00191844 0.00669247 0.00772335 0.000523333 0.000443073 0.000167327 0.00297096 0.00639175 0.000721649 0.00752577 0 0.00844649 0.000395209 0.00241862 0.00489603 0.00950215 0.00522323 0.000678754 0.00295087 0.00444613 -0.00425977 0.000374289 -0.00744652 -0.00676146 -0.00517987 -0.00835806 -0.00349013 -0.00556515 -0.00700599 -0.000528473 -0.00381292 -0.0014624 0.00361841 0.00252451 0.00117889 0.00191536 0 0.00556701 0.000206186 0.00451765 0.00390418 0.00167347 0.00806184 9.30493e-05 7.79937e-05 0.00590235 -0.00139262 -0.00362255 -0.00338733 -0.00273891 -0.0144126 -0.0181572 -0.0412017 -0.0405544 -0.0486138 -0.0393916 -0.0364431 -0.00863673 -0.00298313 0.0065092 0.000739722 0.00434098 0.00198488 0.00137323 -0.000744256 0.00185567 0.00103093 0.0094661 0.0102139 0.00966787 0.00908508 0.0126868 0.00246698 -0.0054245 -0.00419536 -0.00818378 -0.00411785 -0.00867133 -0.0131178 -0.0574767 -0.0465569 -0.0515906 -0.0465217 -0.0496999 -0.0274911 -0.00436912 0.000485881 0.00748671 -0.000563472 -0.001185 0.00398374 0.00171653 0.00626605 0.00886598 0.0053298 0.00106081 0.00414232 0.00939651 0.00450084 0.00235288 -0.0140538 -0.0187138 -0.0161837 -0.0113864 -0.00257432 -0.00264148 -0.0262146 -0.0292945 -0.0402145 -0.0355726 -0.0222382 -0.0390261 -0.0218156 -0.0308144 -0.0363615 -0.00308332 0.00743926 -0.00461319 0.00155825 0.00080762 0.00309078 0.00721649 0.00279747 0.00839868 0.0118122 -0.00441129 -0.0113731 -0.017346 -0.0114118 -0.0231401 -0.0158326 -0.00743556 -0.0310017 -0.0356217 -0.0347741 -0.0400363 -0.0354581 -0.0373885 -0.0312426 -0.0297388 -0.0308658 -0.0313957 -0.0311026 0.00693925 0.0115405 -0.00316661 -0.00108837 -0.00120932 0.00163869 0.00205337 0.00981536 0.00540854 0.0119804 0.00125147 -0.0223307 -0.00687341 -0.0107612 -0.0230251 -0.00664904 -0.00340442 -0.0280186 -0.0417019 -0.0373178 -0.0324276 -0.0356882 -0.0396155 -0.0403473 -0.0281168 -0.0413394 -0.0287865 -0.0238004 0.000811419 0.00799596 -0.0105215 0.00117236 0.00353412 0.00598183 0.00721649 0.00308455 0.00708612 0.0115187 -0.00689488 -0.00890294 -0.010687 -0.00394844 -0.0101266 -0.00549194 -0.02904 -0.0298816 -0.036483 -0.0490356 -0.0332087 -0.0450617 -0.0344205 -0.0289976 -0.0446176 -0.0378479 -0.0420691 -0.0280438 -0.000388151 0.00285227 0.000156832 0.000882401 0.0098064 0.00985789 0.00237113 0.00620293 0.0112664 0.00373551 0.0023789 0.000695286 0.000851888 0.00053626 -0.00780424 -0.0411184 -0.0253173 -0.0287269 -0.0411087 -0.039675 -0.0312105 -0.0291933 -0.0248576 -0.0326322 -0.0227312 -0.0169598 -0.045358 -0.0254502 -0.0306213 -0.00158184 -0.00626487 0.00929886 0.01019 0.00443521 0.00247423 0.00108811 0.0108652 0.00837224 0.00293117 0.00240521 -0.00534389 -0.00479517 -0.0325378 -0.031605 -0.0355946 -0.0396069 -0.0470046 -0.0452606 0.0112227 0.0116178 0.0124379 -0.00543179 -0.0237759 -0.0058709 -0.0324381 -0.0303282 -0.035406 -0.00705051 -0.00413919 0.00269954 0.00995205 0.00151071 0.00463918 0.00901746 0.0077182 0.0102095 -0.00458284 -0.0132067 -0.00885387 -0.0328405 -0.0371986 -0.0436703 -0.0420714 -0.0396318 -0.059272 -0.0366091 0.00765495 -0.000966626 -0.00624165 -0.0125754 -0.0409969 -0.0289682 -0.0399536 -0.0259452 -0.0323906 -0.0136011 -0.0113935 0.00338059 0.00846321 0.00571053 0.00814433 0.000984685 0.00508118 0.000846425 -0.00643895 -0.0050267 -0.0104113 -0.0392022 -0.0357286 -0.0288647 -0.0354836 -0.0185408 -0.0185207 -0.00751399 0.00289409 0.00181102 -0.00520429 -0.0341203 -0.0284691 -0.0218639 -0.0277839 -0.0331398 -0.0336578 -0.0114719 -0.0108823 0.00198174 0.00390756 0.00177513 0.00731959 0.000841642 0.0037568 0.00697008 0.00426462 -0.00683312 -0.0123439 -0.0369772 -0.0356127 -0.0305594 -0.00868909 -0.0326516 -0.0190919 -0.017345 -0.0128642 -0.0180534 -0.00912578 -0.0266232 -0.0144582 -0.00749116 -0.0258267 -0.0295742 -0.0360542 -0.00991557 -0.00637189 0.0065792 0.00628796 0.00125966 0.00835052 0.00947645 0.00421987 0.00481359 0.00279399 -0.00540346 -0.0354773 -0.0269345 -0.0298218 -0.0237134 -0.00993601 -0.00165391 -0.00841854 -0.035403 -0.0113265 -0.0184045 -0.0147256 -0.0115587 0.000152728 -0.00835344 -0.033192 -0.0255898 -0.0301122 0.00521176 0.0019625 0.0056342 0.00648288 0.00806982 0.000515464 0.00710532 0.00450236 0.00574053 0.00967373 0.00274399 -0.0314927 -0.0287382 -0.0230537 -0.0255193 0.00161624 -0.00441014 -0.00148777 -0.016136 -0.00936237 -0.0176164 -0.0137013 -0.0121659 -0.0466992 -0.0389789 -0.035563 -0.0285921 -0.0306164 0.003406 0.00156131 0.000838753 0.00475793 0.000402829 0.00804124 0.00135258 0.00731389 0.00951235 0.00469072 -0.00249349 -0.0320162 -0.0251308 -0.0323147 0.00390337 0.000631399 -0.0219968 -0.0143463 -0.00623319 -0.00868965 -0.0242764 -0.02621 -0.0499913 -0.0413652 -0.0431609 -0.0374045 -0.0351695 0.00133137 -0.00497497 0.000333482 0.00207263 0.00471572 0.00411048 0.000515464 0.00146376 0.00320274 0.0029401 0.00199909 0.00541663 -0.0337655 -0.0318445 -0.0377964 -0.0113936 -0.0189819 -0.0274091 -0.0358562 -0.0102086 -0.0292494 -0.0269574 -0.0620462 -0.051624 -0.0548299 -0.0422375 -0.00704362 0.000246992 -0.000449334 0.00376002 0.00255932 0.00232512 0.00681609 0.00233314 0.00659794 0.00186309 0.0101493 0.00287908 0.0038288 0.00196759 -0.0255399 -0.0348953 -0.0325079 -0.0120951 -0.0250147 -0.0288385 -0.0386172 -0.0255202 -0.0387527 -0.0766097 -0.0714718 -0.0714169 -0.0518375 -0.021151 -0.00154029 -0.0052499 -0.00401899 -0.000132871 0.00125127 0.0101105 0.00764907 0.00614035 0.00907216 0.00618933 0.00552364 0.00688014 0.00611455 0.00549569 -0.0298649 -0.0251328 -0.030122 -0.0457681 -0.0497005 -0.046578 -0.0604907 -0.0641557 -0.0733603 -0.084247 -0.0634141 -0.0711059 -0.0662317 -0.0168478 -0.00449033 -0.00113497 -0.00402216 0.00763292 0.0121838 0.00752455 0.00330907 0.000309278 0.00402062 0.00628866 0.00873866 0.00452808 0.00667615 0.0063421 -0.0268669 -0.0224893 -0.0289554 -0.026216 -0.0511631 -0.047066 -0.0481872 -0.0569726 -0.0653677 -0.0788715 -0.0704279 -0.0389713 -0.0262402 -0.0131528 -0.00171381 0.00272554 -6.25949e-05 0.00228419 0.00823462 0.0102482 0.00534267 0.0085567 0.00103093 0.00298969 0.00996911 0.00239726 0.00366574 0.00949827 -0.0250183 -0.0170069 -0.0226007 -0.0266211 -0.03811 -0.0474501 -0.0511878 -0.0528724 -0.0646531 -0.0208602 -0.0313078 -0.0231533 -0.0127303 0.00230094 0.00663646 0.012415 0.00670777 0.0149433 0.00666561 0.00836238 0.00839231 0.01 0.00134021 0.00525773 0.00999137 0.00855561 0.00899226 0.0100519 0.0117957 -0.0172119 -0.0182694 -0.0203117 -0.0240196 -0.0401426 -0.0416643 -0.0541822 -0.0164183 -0.0210712 -0.0247381 -0.0140411 -0.0100524 0.00133518 0.012046 0.00836776 0.0120578 0.0139021 0.00525138 0.0070952 0.00276567 0.00721649 0.00649485 0.00257732 0.00384124 0.0078535 0.00426779 0.0080653 0.00769387 0.0196528 0.0121241 0.00595231 -0.000641489 0.00361237 -0.0194597 -0.0090384 -0.00388027 -0.00847457 -0.0180227 -0.0112879 0.00287246 -0.00209368 0.0091171 0.00820955 0.00708508 0.00526971 0.00537749 0.00330401 0.00486841 0.00597938 0.00958763 0.00731959 0.00789016 0.00263483 0.00503104 0.00856919 0.0141458 0.0058268 0.00952364 0.00282026 0.00599122 0.00595974 -0.00194446 0.000118854 0.00535498 -0.0045506 -0.00490872 0.00675422 0.00541045 0.00544807 0.00661559 0.00502344 -0.000739855 0.00199233 0.00241798 0.00749608 0.00945484 0.01 0.00185567 0.00525773 0.00690722 0.00218852 0.00736339 0.00719668 0.00714504 0.00109771 0.006895 0.00638999 0.00850049 0.00462259 0.00577422 0.0177819 0.0124022 0.00824524 0.0109396 0.00466626 0.00894451 0.00840413 0.0133042 0.00608648 0.00466467 0.00679879 0.000855096 0.00402062 0.00350515 0.00783505 0.0014433 0 0.00608247 0.00226804 0.00103093 0.00538153 0.00211196 0.0027798 0.00649572 0.00585246 0.00197366 0.00917442 0.0109889 0.0125327 0.00507547 0.00742661 0.00531031 0.0036859 0.00974911 0.0109281 0.00499946 0.0115202 0.00169919 0.00191555 0.00371134 0.00824742 0.00845361 0.00680412 0.00402062 0.00680412 0.00237113 0.00402062 0.00670103 0.00783505 0.00319588 0.01 0.00917526 0.00371134 0.00505155 0.00628866 0.00868996 0.0038446 0.00876289 0.00226804 0.00247423 0.00556701 0.00484536 0.00876289 0.00927835 0.00402062 0.00752577 0.00474227 0.0043299 0.00865979 0.00103093 0.00185567 0.00443299 0.00917526 0.00154639 0.000927835 0.00958763 0.00496746 0.00924305 0.00955232 0.00311216 0.00155035 0.00200942 0.00814416 0.00506609 0.00890774 0.00789524 0.0102878 0.00479575 0.00908629 0.00370532 0.00550133 0.00524925 0.00333245 0.00691985 0.00700856 0.00835052 0.00309278 0.00546392 0.00938144 0.00195876 0.00876289 0.00979381 0.00886966 0.00185935 0.00537923 0.00700751 0.00462833 0.000216448 0.00398308 0.00530107 -0.00120777 -0.00639945 -0.00542491 0.00524496 0.00566343 -0.00283319 0.00529259 0.00739532 0.00386393 0.00107796 0.00671645 0.0082651 0.00358999 0.00340327 0.00615329 0.00804124 0.00639175 0.00762887 0.00268041 0.00684266 0.00375328 0.00474507 0.00340664 0.00182524 0.0035654 -0.00352661 0.000290104 -0.00154315 -0.00315739 0.00097807 -0.00717871 -0.0115719 -0.013407 0.016336 -0.00315257 0.000131194 -2.76461e-05 -0.00398245 -0.0009126 0.00935108 0.00522066 0.00789864 0.00523519 0.00590916 0.00484536 0.00597938 0.00185567 0.00950497 0.00732679 0.00122309 0.00170197 0.000293431 0.0037145 0.00379079 0.0109053 -0.00157815 -0.00407759 -0.0027654 -0.0133777 -0.000165656 -0.0149402 -0.0010935 -0.0273771 -0.00242831 -0.00655495 -0.0109905 -0.0168083 0.0114143 -0.000833948 -0.000743518 -0.0147907 -0.00312336 -0.00514483 0.00979381 0.00731959 0.00507198 0.00509885 0.00466863 0.00177025 -0.00286513 -0.0127897 -0.0271806 -0.018588 -0.0200638 -0.0196076 -0.0256143 -0.0324332 -0.0660488 -0.0469838 -0.0379258 -0.043429 -0.0270678 -0.0113467 0.0181768 0.0106678 0.0252567 0.0144841 0.00247972 -0.0034179 -0.00571083 0.000422183 0.00917526 0.00622846 0.00156306 0.00469216 0.00137899 -0.00320818 -0.00969971 -0.0151705 -0.0388627 -0.0267308 -0.00506263 -0.0228393 -0.0195665 -0.0800581 -0.0867398 -0.0903741 -0.0850654 -0.0338556 -0.0357413 -0.00741676 -0.010984 0.00540876 0.0106877 0.0221548 0.0216543 -0.00359712 -0.00172887 0.00644241 0.00670103 0.0047252 0.00128259 0.00506589 0.00224852 -0.00348376 -0.00785373 -0.0173618 -0.0374719 -0.0198213 -0.00743618 -0.0281186 -0.0488452 -0.0793782 -0.0829075 -0.0734717 -0.08001 -0.0665294 -0.0369068 -0.00847273 0.00263444 0.00402986 0.030579 0.0345588 0.0222149 0.0067787 0.00898979 0.00178654 0.00177038 0.00947964 0.0065235 0.00656461 0.00202822 -0.00279488 -0.0104368 -0.0169877 -0.0305641 -0.0207068 -0.018472 -0.0386975 -0.0734149 -0.0767804 -0.0979697 -0.07972 -0.0648672 -0.0452177 -0.0280297 -0.00887853 -0.0150686 -0.00631596 0.0252664 0.0130499 0.0150379 -0.00801349 -0.00200062 0.00362858 0.00762887 0.00823425 0.00889237 0.00813491 0.00227812 -0.0025259 -0.013021 -0.0227923 -0.0427921 -0.0325224 -0.0300878 -0.0393964 -0.0719353 -0.10987 -0.0712598 -0.0780323 -0.00689246 -0.034656 -0.0565174 -0.0352285 -0.0181163 0.00307429 0.0153754 0.0121001 0.00918335 0.00669103 0.0142268 0.00665916 0.000618557 0.00605914 0.0054613 -0.00180281 -0.00456306 -0.0144372 -0.0248078 -0.0233845 -0.0258661 -0.0464289 -0.041638 -0.059891 -0.0719973 -0.114979 -0.0416629 -0.0347236 -0.032955 -0.0471528 -0.0365499 -0.0157893 -0.0211334 -0.00453752 0.00328395 0.0161993 0.0250252 0.0221085 0.01224 0.00726488 0.00505155 0.00533297 0.0112161 0.00243069 -0.00373865 -0.0275879 -0.0293209 -0.0308928 -0.0504425 -0.0586276 -0.0476666 -0.0500354 -0.0762355 -0.0655914 -0.0162134 0.0114844 -0.0070012 -0.0362517 -0.0240133 -0.0084573 -0.0351817 -0.0192387 -0.0107289 -0.0163696 0.014806 0.0313302 0.0109706 0.00316342 0.000103093 0.00616394 0.0036901 0.00332074 -0.00931013 -0.0321281 -0.0381718 -0.0613656 -0.0468181 -0.0551922 -0.0390381 -0.0336775 -0.0435165 -0.0198944 0.00455275 0.0188775 -0.0294118 -0.0489549 -0.0413189 -0.0282518 -0.0328031 -0.0407505 -0.0387047 -0.011807 -0.00273634 0.00779503 0.0110148 0.00350435 0.00793814 0.00487711 0.00982872 0.00311054 -0.014979 -0.0210034 -0.0330667 -0.0457212 -0.0282013 -0.00925305 -0.019947 -0.00455024 0.00338606 -0.0202223 -0.00989071 -0.0142072 -0.0268979 -0.0340151 -0.0336428 -0.0347128 -0.0236214 -0.0421304 -0.0329404 -0.00516658 0.0044951 0.0191297 0.0219476 0.00801099 0.00773196 0.00794867 0.00310724 0.00829381 -0.0068532 -0.0156608 -0.0370872 -0.0455155 -0.0219949 -0.0263894 0.0114435 -0.00955775 -0.00162192 0.0099379 -0.00743169 -0.000360973 -0.0313515 -0.0191138 -0.0398697 -0.035382 -0.044659 -0.0243664 -0.0320307 -0.00202975 0.0108954 0.0209886 0.0141744 0.000897584 0.00958763 -0.00013499 0.00588424 0.00709593 -0.00867518 -0.00920557 -0.0531609 -0.0267647 -0.0331611 -0.00365634 0.0087725 0.0165403 0.00289121 0.0151096 0.0297057 -0.00862157 -0.0434018 -0.0608543 -0.0615975 -0.0263222 -0.041496 -0.0287396 -0.0182651 0.010128 0.017281 0.014233 0.0111026 0.00508107 0.0014433 0.00295779 0.00941028 0.0021849 -0.00262307 -0.00889246 -0.0313602 -0.0138175 -0.00591143 0.00457345 0.00995946 -0.0016931 -0.0128535 0.013214 0.0258373 -0.00625123 -0.0311552 -0.0396456 -0.0564585 -0.034473 -0.0295384 -0.0277594 -0.013603 0.0146453 0.0260273 0.0247799 0.016757 0.00210145 0.00989691 0.00347075 -0.00103405 0.0114563 0.0115395 0.00790768 -0.0230494 -0.015304 0.00798344 0.03088 0.033713 -0.000332962 0.00608427 0.0322833 -0.00970231 -0.041858 -0.0621284 -0.0485972 -0.0350752 -0.0201306 -0.0436985 -0.026862 -0.0103347 0.0109739 0.0220041 0.0157687 0.00914295 0.00940925 0.00783505 0.000100587 0.000541717 0.0108371 0.0112851 0.00870115 -0.0187308 0.0117127 0.0176528 0.0404262 0.0102186 0.00411951 -0.0117456 -0.00646598 -0.0469368 -0.0713116 -0.0541572 -0.0547943 -0.0287918 -0.0271465 -0.0052847 -0.0147703 -0.00817006 0.003741 0.0258571 0.0223837 0.00917455 0.0059183 0.00340206 0.000570397 0.00915393 0.0157782 0.00823188 0.0364759 0.0192888 0.0171584 0.0287649 0.0495216 0.0147567 0.0147552 0.00194372 -0.00770079 -0.0590647 -0.08197 -0.0757979 -0.0493621 -0.0325841 -0.00916564 -0.010049 -0.0133929 -0.0168068 0.0021217 0.0143992 0.0235583 0.00840208 0.00447601 0.00329897 0.00823825 0.00805104 0.0111914 0.021015 0.0476159 0.0259541 0.0232668 0.00812664 0.00991332 0.00112552 -0.0302549 -0.0474525 -0.0472957 -0.0945941 -0.0712761 -0.0472076 -0.046422 -0.0326941 -0.0084712 -0.00389494 -0.0168117 -0.0189131 -0.00186683 0.00817284 0.0109946 0.00806869 0.00216495 0.00762887 0.00969072 0.00208722 0.00677066 0.0124067 0.0411976 0.0259494 0.00615972 -0.00204997 0.0120659 -0.0524101 -0.0240905 -0.0444184 -0.0762698 -0.0685157 -0.0536532 -0.0484415 -0.0103639 -0.000642364 -0.00246814 -0.014213 -0.0249017 -0.0043224 0.0039385 0.000533665 0.00526314 0.010972 0.00752577 0.00278351 0.00979381 0.00566775 0.006332 0.00742516 0.0338841 0.0114339 -0.00563302 0.00655727 -0.000172416 -0.0432654 -0.0498992 -0.0641025 -0.0953222 -0.0647378 -0.0106003 -0.0185413 -0.00345222 -0.00567464 -0.000919804 -0.00873395 -0.00589945 -0.00271659 0.00651949 0.00339905 0.00962463 0.00989334 0.00762887 0.0085567 0.00659794 0.00723095 0.00919615 -0.00340783 0.0301974 0.0194803 0.0117392 0.0102677 -0.0130161 -0.031266 -0.0403927 -0.0518143 -0.0730932 -0.0302382 -0.0351834 -0.0341937 -0.0214703 -0.00350171 -0.00903208 -0.00497592 -0.00205285 -0.00146494 -0.00451694 0.00176113 0.0060775 0.00777538 0.00659794 0.0056701 0.000206186 0.0093625 0.00923659 -0.00168915 0.0155956 0.00123322 0.00302555 0.00482592 -0.0120298 -1.20961e-05 -0.0259049 -0.0253581 -0.0260496 -0.026621 -0.0305065 -0.0284631 -0.0239729 -0.0131577 -0.0150392 -0.000460392 -0.0119463 -0.00563463 0.000930297 0.00062418 0.00445032 0.0122647 0.00134021 0.00185567 0.00185567 0.00527054 0.00287484 -0.00268746 -0.00615245 -0.00221768 -0.00320892 -0.00420294 -0.00303974 -0.0101465 -0.00242125 0.00177765 0.00399838 0.00304305 -0.00514426 -0.0105982 -0.0060176 -0.00419187 -0.003624 -0.0039093 0.000549818 0.00205683 0.00653248 0.00687487 0.00959065 0.00639478 0.00649485 0.0028866 0.0071134 0.00113402 0.00847951 0.00647488 0.00870231 -2.62548e-05 0.00362931 -0.00524722 -0.005358 -0.00321402 -0.00302353 -0.000368495 -0.0100561 -0.0103142 -0.00434445 -0.00259439 0.00174645 -0.00192072 0.00381912 0.00590045 0.00263929 0.00377551 0.00268953 0.00446015 0.00298969 0.00670103 0.00164948 0.00350515 0.00515464 0.00721649 0.000721649 0.00185567 0.00742708 0.00366392 0.00696895 0.00370904 0.00896943 0.000860877 0.000845217 0.00390905 -0.000830846 8.97132e-05 0.00772203 0.00712475 0.000695045 0.00566258 0.00669791 0.00805242 0.00569451 0.00635219 0.000722182 0.00237113 0.00886598 0.00618557 0.00886598 0.00195876 0.00134021 0.0028866 0.00773196 0.00103093 0.0042268 0.00556701 0.00752577 0.00278351 0.00587629 0.00979381 0.00556701 0.0077737 0.00375308 0.00278351 0.00865979 0.00247423 0.00917526 0.000927835 0.00525773 0.000206186 0.00958763 0.00412371 0.00608247 0.0057732 0.0056701 0.00474227 0.000721649 0.00360825 0.00824742 0.00474227 0.00731959 0.00762887 0.000702091 0.00946206 0.00822495 0.00533707 0.00839205 0.00222353 0.00882483 0.00609821 0.00333313 0.00123757 0.00357979 0.011294 0.00500024 0.00549328 0.00534861 0.000939365 0.00832473 3.80765e-05 0.00963468 0.00835052 0.00958763 0.00969072 0.00721649 0.00257732 0.00123711 0.00257732 0.00405492 0.00890028 0.00817241 0.00257616 0.00291783 0.00611262 0.0087748 0.000692309 0.00486817 -0.00134926 -0.00306522 0.0042705 0.00419629 0.00505654 0.00599994 0.00119818 0.00706168 0.00255852 0.00288122 0.00462647 0.0017474 0.00195198 0.00535518 0.00546392 0.000618557 0.0101031 0.00845361 0.0101924 0.00441183 0.00437014 0.00318226 0.00793127 0.00481037 0.0100067 0.00127517 0.00156567 -0.00445684 0.00757019 0.00947518 -0.00164881 0.00320188 0.0135865 0.00561639 0.00490175 0.00452412 -4.99962e-05 0.0067856 -3.02481e-05 0.00319934 0.00580904 0.000397118 0.00221805 0.00360825 0.00979381 0.00783505 0.00110276 0.00537068 0.00764295 0.00287592 0.00449507 -0.00435545 0.00459795 0.00460873 -0.00189624 -0.00607862 -0.00505721 -0.0062989 -0.000253045 -0.0177289 -0.0122368 -0.0341264 -0.0161943 -0.0183842 7.72805e-05 4.19589e-05 0.00115073 -0.000232763 0.00164843 0.00435221 0.00648569 -0.0019158 0.00979381 0.00402062 0.0100718 0.00516563 0.00384807 0.00404405 -0.00119103 -0.006555 -0.0223411 -0.0169418 -0.018099 -0.00283003 -0.00133324 -0.0130714 -0.0405778 -0.0414268 -0.0345758 -0.0389353 -0.0351681 -0.0208094 0.000590023 -0.00660611 -0.000661798 -0.00202817 -0.00312757 -0.00330231 0.00455797 0.00499142 0.00226804 0.00543832 0.00804151 0.00790075 -0.00289309 -0.016747 -0.0105459 -0.0305199 -0.0370099 -0.0253906 -0.00942475 -0.0120184 -7.79757e-05 -0.0309955 -0.0380879 -0.0556606 -0.0448526 -0.0293089 -0.0468844 -0.0240008 -0.0354818 -0.0289291 -0.0052073 0.000376973 -0.00891952 0.00173091 0.00693793 0.00222621 0.000515464 0.00930671 0.00638971 0.00625372 -0.00730685 -0.0184808 -0.0179525 -0.0239919 -0.0265758 -0.00104721 0.00909916 -0.0265138 -0.0323136 -0.0417018 -0.0383707 -0.0333186 -0.0436068 -0.0493736 -0.0224064 -0.019695 -0.0241189 -0.030275 0.0037469 0.00209734 0.00421532 0.00757993 -0.000949456 0.00574166 0.00623237 0.00751487 0.00240719 0.00536164 -0.00385596 -0.013697 -0.00986499 -0.00891508 -0.0197954 0.00289971 0.00790217 -0.0128531 -0.0397914 -0.0322675 -0.0325383 -0.034355 -0.049883 -0.0546702 -0.0310811 -0.0364141 -0.0279368 -0.0254117 0.00256841 0.00807256 -0.00431275 -0.00408822 -0.00062423 0.000837522 0.00515464 0.00775576 0.00378316 0.0153258 -0.00448724 -0.00244947 -0.000829746 -0.00416179 -0.00674306 0.0040865 -0.00817089 -0.0261391 -0.0307359 -0.0355521 -0.0200611 -0.0456902 -0.0195445 -0.0464072 -0.0543107 -0.0479038 -0.0388603 -0.0162638 0.00844137 0.00340362 0.00069178 0.00556073 0.0057197 0.00621451 0.00103093 0.00192712 0.0132075 0.00998244 -0.00225748 -0.00334579 0.00565771 0.00484116 -0.0098497 -0.0243983 -0.0069294 -0.0170137 -0.034792 -0.0358283 -0.0100763 -0.0261905 -0.0344265 -0.0498959 -0.0319282 -0.0147437 -0.0328763 -0.0169504 -0.00897248 0.00804711 0.0110437 0.0162568 0.00861495 0.0100675 0.00474227 0.00177335 0.0138601 0.0103953 0.00842955 -0.0123456 0.00331304 -0.00247257 -0.0298782 -0.0305161 -0.0268244 -0.0308016 -0.0592606 -0.0418128 0.0117472 0.00034931 -0.0121114 -0.0252184 -0.0410781 -0.0178572 -0.0324925 -0.0256419 -0.0226182 0.00192425 0.0138711 0.0163618 0.00491072 0.011429 0.00659794 0.0024577 0.00991583 0.00176332 0.00484616 -0.0122993 -0.00313892 -0.0349386 -0.02598 -0.0393639 -0.0352863 -0.0415712 -0.0591425 -0.0427057 -0.000224584 -0.00596418 -0.0372923 -0.0526213 -0.0544953 -0.0328636 -0.0302938 -0.0271515 -0.0241625 0.00326735 0.00557308 0.0120626 0.0187324 0.010515 0.00938144 0.00484053 0.00486269 0.00280725 0.000332517 -0.00217941 -0.00964148 -0.0361206 -0.0253983 -0.0309431 -0.0434102 -0.0284535 -0.0366276 -0.0415715 -0.0122072 -0.0192763 -0.0451564 -0.0587083 -0.0591589 -0.0291706 -0.029306 -0.0294206 -0.0225748 0.00989426 0.0143714 0.0217389 0.0187943 0.00720258 0.00814433 0.00652231 0.00194747 0.00260271 0.000522623 -0.00355266 -0.0119429 -0.0426673 -0.0291504 -0.0376064 -0.0183502 -0.0454384 -0.0501668 -0.0360966 -0.0214572 -0.0356719 -0.052814 -0.0505295 -0.0406002 -0.0224885 -0.023321 -0.00898515 -0.0136431 0.0152835 0.0133657 0.0156907 0.00760707 0.00421288 0.000927835 0.00657767 0.00440608 0.00219537 0.00208302 -0.00155068 -0.035894 -0.0317843 -0.0471029 -0.036671 -0.0126312 -0.0281479 -0.0399831 -0.0505313 -0.0198664 -0.0323503 -0.0493969 -0.052747 -0.0274167 -0.0140393 -0.0210228 -0.00747504 -0.00434529 0.0141911 0.0141271 0.0230924 0.0157645 0.00470377 0.00113402 0.0061653 0.00441127 0.000872645 -0.0027657 -0.00593881 -0.0307854 -0.0328054 -0.014342 -0.0203481 -0.00414818 -0.0328638 -0.0406006 -0.0353888 -0.0118479 -0.0334597 -0.0365795 -0.0218376 -0.0370927 -0.0237404 -0.0203407 -0.00947208 0.000915137 0.0175951 0.0243466 0.0158877 0.0191033 0.00154404 0.00958763 0.00894395 0.00020875 -0.000517044 -0.00134889 0.00521327 -0.0293143 -0.023155 -0.0171393 0.00448117 -0.000380788 -0.0351905 -0.0353203 -0.00311711 -0.00690764 -0.0508803 -0.0558122 -0.0613557 -0.0301835 -0.0301005 -0.022375 -0.0170762 0.00759284 0.0140604 0.0164165 0.0113015 0.00532916 0.0027072 0.00865979 0.00710855 0.00483684 0.00291986 0.00662435 0.00400801 -0.0243773 -0.0156383 -0.0121259 0.00938826 -0.00387476 -0.0260001 -0.0193597 -0.0158278 -0.0225591 -0.0469695 -0.0536669 -0.050852 -0.0326145 -0.0278811 0.0167685 0.00473295 0.00913704 0.00989005 0.0230507 0.0113714 0.00603819 0.00520048 0.00824742 0.00579336 0.00346866 0.00527635 0.00362009 0.0123459 -0.0063159 -0.0143563 -0.00781584 0.00588779 0.00303584 -0.018891 -0.0118203 0.000346196 -0.025501 -0.0752701 -0.062058 -0.0613723 -0.0503598 -0.0130093 0.00831902 -0.00445813 -0.00420843 0.0034623 0.0119935 0.0164019 0.00674195 0.00663769 0.00175258 0.00547135 0.00777242 0.0078462 0.0145604 0.0152946 -0.0121976 -0.00591642 -0.00927967 -0.0128015 -0.0164276 -0.0246904 -0.0363516 -0.0292287 -0.0616951 -0.0696647 -0.0503914 -0.0537821 -0.0521169 -0.0118545 0.0130735 0.00189111 -0.00657732 0.00128634 0.0130986 0.0116192 0.00812825 0.00597938 0.0085567 0.000618557 -0.000353734 0.00457823 0.00716088 0.0221568 -0.00513477 -0.0085073 -0.010923 -0.00200133 -0.0354122 -0.0128563 -0.0282848 -0.0555365 -0.0537967 -0.0568959 -0.0598886 -0.0302092 -0.0221594 -0.0115121 -0.00736691 -0.00821313 -0.0033277 0.00410754 0.00758962 0.0113907 0.00540731 0.00453608 0.00185567 0.00587629 0.00835167 0.00410529 0.0111595 0.0116072 -0.0105305 -0.00587004 -0.0117225 -0.00925219 -0.0357003 -0.0360439 -0.0475083 -0.0630998 -0.0562954 -0.00775675 -0.0264931 -0.0310175 -0.005 -0.0084612 -0.00836181 -0.00584575 -0.00934785 0.00308058 0.00809385 0.0106427 0.0114494 0.00391753 0.00556701 0.000515464 0.00106183 0.00567975 0.00967234 0.0175887 0.0170864 -0.00246619 -0.00248977 -0.0162563 -0.0262589 -0.0402314 -0.0405686 -0.0531721 -0.0204602 -0.0293922 -0.038753 -0.0298611 -0.0162372 -0.00903276 -0.00850035 -0.00662993 0.00117965 0.00791571 0.0124612 0.00270909 0.011931 0.00319588 0.00608247 0.00659794 0.00502471 0.0022099 0.00414203 0.00523494 0.0123311 0.011406 0.00194014 -0.00732855 -0.0142839 -0.00824113 -0.0220593 -0.0256549 -0.0172791 -0.0213603 -0.0295627 -0.0279215 -0.013804 -0.0178941 -0.00153773 -0.00803546 0.00175806 0.00420423 0.00892349 0.0109528 0.0105003 0.00185567 0.00814433 0.00329897 0.00970296 0.00282586 0.00512609 0.00761107 0.0108323 0.0130344 0.0027397 -0.00340004 0.00322318 0.00606895 -0.00663714 0.00253616 0.0008101 -0.00407071 -0.00283013 0.00684631 0.00127376 0.00731215 0.00514769 0.00378621 0.000765796 0.00565811 0.00846208 0.00271862 0.00921346 0.00216495 0.00474227 0.00958763 0.00298969 0.008967 0.00197272 0.0071582 0.00881853 0.00878859 0.010005 0.0106705 0.0117523 0.0076512 0.0150822 0.0189448 0.0181764 0.0145402 0.00960921 0.007166 0.00860939 0.0108706 0.0186328 0.0130708 0.00839896 0.00317125 0.00156195 0.00597938 0.00989691 0.0014433 0.00309278 0.000309278 0.00237113 0.00597938 0.00525773 0.00908495 0.00933137 0.000799708 0.00832256 0.0076621 0.0109525 0.011355 0.0104719 0.0124442 0.00316032 0.00580629 0.00898085 0.00584205 0.00297609 0.00937041 0.00715493 0.00679607 0.000655104 0.00517256 0.00742268 0.000206186 0.00113402 0.00195876 0.00402062 0.00247423 0.00247423 0.00298969 0.00639175 0.00371134 0.0102062 0.00309278 0.00257732 0.00546392 0.00587629 0.00350515 0.0010504 0.00651432 0.00618557 0.00917526 0.00618557 0.00670103 0.00731959 0.0102062 0.00587629 0.00927835 0.00896907 0.00350515 0.00412371 0.00845361 0.00628866 0.00206186 0.00268041 0.00463918 0.00886598 0.00752577 0.00958763 0.00412242 0.00804323 0.00309477 0.0858444 0.0876294 0.0945513 0.0958812 0.0487559 0.00709622 0.014642 -0.0310929 -0.0471373 -0.0389887 0.00288458 0.0096987 0.00630058 0.00485829 -0.00213795 0.00208348 0.00556701 0.00216495 0.00329897 0.00536082 0.00484536 0.00793814 0.00164948 0.00639174 0.00577318 -0.00154852 0.0502658 0.0861349 0.076164 0.070473 0.0562842 0.0564663 0.011644 0.000303624 -0.00516107 -0.00982252 -0.0229491 -0.000705591 -0.0251181 -0.0415596 0.00558606 -0.000825199 -0.00144 0.00520476 0.00103146 -0.000212778 0.0056701 0.00164948 0.00618557 0.00876289 0.00752494 0.00494929 0.00268125 0.0597877 0.111957 0.107914 0.16352 0.0703897 0.107094 0.148456 0.122102 -0.0614907 -0.0544011 -0.0740302 -0.14842 -0.164952 -0.0192475 -0.00410807 -0.090853 -0.0188775 -0.0430044 -0.0129147 0.0573499 0.00308665 0.00725103 0.00309278 0.00195876 0.000103093 0.00133937 0.00330984 -0.0473721 0.0222748 0.100799 0.0692773 0.0895275 0.1856 0.327849 0.0191272 -0.0879699 -0.111284 -0.200048 -0.288811 -0.260236 -0.0907272 -0.0275118 -0.0610221 -0.0835158 0.0179599 -0.0851361 0.0170841 0.0302419 0.0239066 0.0132046 0.00981964 0.000103093 0.00649485 -8.37238e-07 0.00873036 0.0371483 0.176785 0.0424568 0.23065 0.259923 0.444756 0.474936 0.79966 0.49875 0.385784 -0.0357698 -0.110203 0.267286 0.0984429 0.348244 0.117344 -0.0148471 0.0915115 -0.171921 -0.0275923 0.0478202 0.0205524 -0.00481218 0.004665 0.00876289 0.00888973 -0.0113154 -0.10297 -0.115389 0.139686 -0.114022 0.18453 0.604357 0.30276 0.31914 0.325361 -0.0663147 -0.095203 0.159497 0.416541 0.0637253 0.628727 0.174653 -0.236813 -0.0275827 0.168534 -0.000107508 -0.0169502 -0.0313969 0.0218285 -0.00755686 0.00670655 0.00773196 -0.00595313 -0.0138902 -0.107046 -0.00964537 -0.156738 -0.525101 0.237791 0.115549 0.232515 0.165175 0.040038 0.104922 0.124692 0.0133193 0.0305674 -0.120809 -0.0582992 -0.142911 -0.506027 -0.138251 -0.117051 0.0155742 -0.122942 -0.115867 -0.0370089 0.00459204 0.00314122 0.000409243 -0.0680744 -0.0750034 -0.161303 0.0785563 -0.123803 -0.255527 0.230064 0.245378 0.0890208 -0.155676 0.00725639 0.480245 -0.190561 0.114137 -0.00959029 -0.0999745 -0.26227 -0.150352 -0.849253 0.0975521 -0.0670774 -0.0357846 -0.258801 -0.192097 -0.0207846 0.00420079 0.00408983 0.00536082 -0.0509 -0.0945708 -0.19595 -0.333307 -0.0462651 -0.247568 0.522639 0.963928 0.521643 0.198676 0.00315405 -0.829666 -0.703146 -0.278204 0.120945 -0.504362 -0.266215 -0.265884 -0.775046 -0.211567 -0.061005 -0.218077 -0.27216 -0.322479 -0.0509438 -0.00167665 -0.000340545 0.00773196 -0.0510299 -0.133474 -0.0979926 -0.0259543 -0.120205 -0.035887 0.431654 0.929193 0.496381 0.187724 0.219638 -0.539733 -0.547002 -0.0688738 -0.427313 -0.209828 -0.380454 -0.0324032 -0.60287 -0.0868172 -0.0637445 -0.202946 -0.431322 -0.229952 -0.0802087 -0.00530355 0.00746398 0.0028866 -0.0567135 -0.161235 -0.297041 -0.323329 -0.464265 -0.0747428 0.408517 0.735458 0.367947 0.227887 0.467733 0.0912581 0.111182 0.616352 0.564038 -0.044088 0.33556 0.522161 0.371088 -0.0230204 -0.41969 -0.170368 -0.363155 -0.239885 -0.072105 -0.0198776 -0.00527338 0.00329897 -0.0639221 -0.131343 -0.282557 -0.325664 -0.246728 -0.136295 0.253789 0.451533 0.320281 0.657653 0.495408 0.785079 0.897659 0.933964 0.216657 0.135472 0.586232 0.49567 0.436469 -0.0894211 -0.113834 -0.143627 -0.187537 -0.220683 -0.0842579 -0.0563827 -0.00415383 0.0101031 0.00126214 -0.122143 -0.260296 -0.270361 -0.406807 -0.057585 0.374885 0.241312 0.0164233 0.525675 1.01417 1.0002 1.55971 1.10661 0.318854 0.171693 0.52976 0.522304 0.142009 -0.203401 -0.0292751 -0.29641 -0.227454 -0.273866 -0.102404 -0.0822172 -0.00711098 0.00237113 0.00135602 -0.0502928 -0.308902 -0.362136 -0.580256 -0.258905 -0.116787 -0.442105 -0.0526161 0.042064 0.643978 0.741169 1.34516 0.785971 0.245766 0.694808 0.474843 0.470661 0.11572 -0.411116 0.153552 -0.31376 -0.0127599 -0.175141 -0.0126985 0.0152687 -0.00381201 0.00329897 0.00933475 0.0109825 -0.151473 -0.358622 -0.669006 -0.506107 -0.451008 -0.704711 -0.362053 -0.362563 -0.0905013 0.246014 0.150293 -0.469465 -0.0682095 0.335501 0.0131722 0.080248 0.0216276 -0.507497 0.342493 0.286586 0.454938 0.19347 -0.0246981 0.00527253 -0.000910744 0.00226804 0.0117059 -0.0150149 -0.0996381 -0.322271 -0.839275 -0.536436 -0.874457 -1.14225 -0.890477 -1.09298 -0.743144 -0.784273 -0.659444 -0.540085 -0.540822 -0.331537 0.0402011 -0.518689 -0.2183 -0.373478 0.179703 0.434742 0.197373 0.0649744 -0.0497494 -0.0324835 -0.00423074 0.00391753 0.00288186 0.0181793 -0.0322156 -0.229901 -0.588934 -0.35452 -0.746134 -0.897948 -1.43232 -1.06886 -1.27297 -1.19794 -1.24551 -1.13742 -0.783961 -0.872446 -0.452957 -0.145907 -0.580988 -0.355966 0.155574 0.318329 0.132813 0.0353029 -0.0632991 -0.0241142 0.000735413 0 0.00705227 -0.0141709 -0.0209222 -0.155347 -0.332121 -0.20337 -0.514496 -0.573388 -1.07407 -0.791521 -0.632207 -0.536426 -0.970287 -1.04251 -0.822653 -0.855729 -0.464588 -0.316071 -0.387256 -0.211275 0.327253 0.163771 0.56203 -0.0384868 -0.062191 -0.0493173 0.00592011 0.01 -0.00968674 -0.00757977 -0.0225652 -0.0223088 -0.17416 -0.145433 -0.299011 -0.0949663 0.018163 -0.0705646 -0.155077 -0.385222 -0.308812 -0.259702 -0.527633 -0.663224 0.0775171 -0.155166 -0.044582 0.0248321 0.327991 0.135794 -0.246907 -0.0348619 -0.015246 -0.0053805 0.00532226 0.00391753 0.00919755 0.0126604 0.0351723 0.221418 0.0968248 -0.0973701 -0.0507167 0.165634 0.129595 0.392812 -0.0815519 -0.0106747 0.320489 0.212315 -0.181393 -0.469322 -0.341201 -0.524464 -0.172108 0.020236 0.108419 0.137083 -0.258322 -0.0387127 -0.086785 -0.000953059 0.00350515 0.00886598 0.00195876 0.00970188 0.0678375 0.292822 0.195238 -0.169548 -0.0329571 -0.0352991 0.0193167 0.338057 0.13408 0.0213953 0.24217 0.0312154 0.214635 0.161608 -0.636013 -0.526502 -0.0375792 0.130612 -0.0264145 -0.179937 -0.262078 -0.0892829 -0.0740238 -0.00465887 0.0042268 0.00773196 0.00865979 0.0161619 0.025197 0.142041 0.0784839 0.0845327 0.0751338 0.211845 0.034625 -0.166457 -0.376315 -0.208307 -0.24091 -0.549804 0.169107 -0.192253 -0.519485 0.00658073 -0.275865 -0.272629 -0.149628 -0.388861 -0.252578 -0.0543657 -0.0105822 0.00462264 0.00597938 0.00360825 0.00865979 0.0101281 -0.016238 0.096292 -0.0300643 0.114756 0.234031 0.153511 0.181073 0.0545525 -0.272299 -0.324754 0.0270788 -0.146591 0.248863 -0.16678 -0.0294954 -0.0922689 -0.131261 -0.497799 -0.536093 -0.16429 -0.00870911 0.0487337 0.0334702 0.00325483 0.00402062 0.00628866 0.00247423 0.00914856 -0.00406853 0.0581282 0.0928207 0.197338 0.131194 -0.186133 -0.120145 -0.341627 -0.0220538 0.0367388 0.0123765 0.300631 0.310148 0.0400743 -0.0154287 -0.0553238 -0.0831718 -0.359297 -0.161421 -0.0061949 0.0072897 0.00149896 -0.0168197 -0.0160381 0.00329897 0.00762887 0.00556701 0.00965193 0.00421469 0.0677338 0.0598934 0.0390401 0.0270593 -0.106234 -0.0998938 -0.306672 -0.327343 -0.249457 0.0553213 0.057873 -0.275285 -0.144695 -0.139283 0.0110118 -0.163285 -0.0979672 -0.0642506 0.000602131 0.0284569 -0.00342644 -0.000825765 0.00443197 0.00453608 0.00216495 0.0101031 0 0.00210315 0.0284609 0.0198954 0.0101073 -0.0372514 -0.0630276 0.067834 -0.0901147 0.0452911 -0.0388073 0.134083 0.0944597 0.17284 0.130254 0.00341268 0.0258989 -0.0433839 -0.0546529 -0.0578927 -0.0749841 -0.00909131 0.0124407 0.000206186 0.01 0.000412371 0.00948454 0.00721649 0.000103093 0.00164948 0.00958763 0.00841982 0.00789459 -0.0364879 -0.0340772 -0.110924 -0.0827849 -0.0208674 -0.0568251 -0.0445732 0.00568702 0.239577 0.225743 0.0683465 -0.00203258 0.00386009 -0.0330369 -0.0413496 -0.0356174 0.00901259 0.00731959 0.00690722 0.00680412 0.00113402 0.00319588 0.00505155 0.00443299 0.00443299 0.0042268 0.0071134 0.00164948 0.0056701 0.00123711 0.01 0.00762887 0.00845361 0.002684 0.00876647 0.00927835 0.00546392 0.00237113 0.000721649 0.00463918 0.00515464 0.00206186 0.0043299 0.00195876 0.00556701 0.000618557 0.00226804 0.00226804 0.000309278 0.00969072 0.00618557 0.00804124 0.00103093 0.00886598 0.00849184 0.0104665 0.0016005 -0.000875221 -0.00523868 -0.00277697 0.00105777 -0.00192827 0.00263106 -0.00237679 -0.00346284 -0.00100626 0.00707202 0.0037541 0.00502277 0.00565213 0.00469823 0.00211567 0.0012019 0.000515464 0.00721649 0.0042268 0.00515464 0.00175258 0.00670103 0.000618557 0.00683036 0.00394377 0.007826 0.00816958 0.00271871 0.00929475 0.00726368 0.0137128 0.00990376 0.0145969 0.00771042 -0.00747673 0.00793825 0.0101727 -0.000730611 0.00517277 0.00209778 0.00528582 0.00634003 0.00898063 0.00946823 0.00091572 0.00621106 0.00556701 0 0.00278351 0.00206186 0.0047259 0.00427726 0.0100195 0.00409008 0.000935241 0.00119139 -0.0187823 -0.0224502 -0.00599856 -0.015139 -0.0101496 -0.0369628 -0.0149292 -0.00923852 -0.00853846 -0.0348571 -0.0417702 -0.0245612 0.00775527 0.00183575 0.0114879 0.0103594 0.0138273 0.0122894 0.00356657 0.00443299 0.00484536 0.000309278 0.00739018 0.00699901 0.00665101 0.0141194 0.00215328 -0.0162556 -0.00300241 0.0191797 -0.00233921 0.00211168 0.00487884 -0.0134111 -0.0448413 -0.0461739 -0.0375831 -0.0270933 -0.00932076 -0.0152699 -0.000397169 0.00625868 0.0225394 0.014696 0.0176702 0.00938991 0.00355134 0.0066011 0.00979381 0.00381443 0.00584379 0.0114475 0.0170566 0.0110003 -0.00907869 0.000394193 0.0533503 0.0478079 0.0325087 -0.0307509 -0.0592802 -0.0735904 -0.0882022 -0.0760152 -0.0379888 -0.025154 0.00917524 0.00947423 -0.0210345 -0.00919329 0.00206239 0.0253716 0.00577023 0.00418346 0.00980668 0.00546708 0.00608247 0.00758112 0.00258534 0.0145376 0.00729558 0.0342455 0.0444888 0.023345 0.0139628 0.0187688 -0.00464034 -0.0568761 -0.0747544 -0.133597 -0.114802 -0.0936451 -0.100227 -0.030321 -0.0149048 0.000210448 -0.00147362 -0.0102348 0.0152788 -0.00215081 0.00667275 0.00321801 0.00319002 0.00588654 0.00773196 0.00798923 0.00887462 0.0146832 0.00669605 0.0239903 0.0327321 0.0169594 0.0438008 0.025035 0.00502858 0.00669228 -0.111395 -0.141189 -0.0876371 -0.0948183 -0.123546 0.0184104 -0.0421371 0.0202509 -0.00741871 0.019281 0.0292536 -0.000672134 -0.0102078 0.0102985 0.00708436 0.0053598 0.00539202 0.00777809 0.00724206 0.00766037 -0.0178409 0.0188956 0.0254905 0.0075509 0.0517228 0.0276298 -0.0253335 -0.0383283 -0.0995771 -0.0660656 -0.0352844 -0.0449131 -0.0428157 0.00393794 -0.0516479 -0.0469757 -0.0517972 -0.0323577 -0.0125289 -0.0342764 -0.0152497 -0.0109905 0.00645957 2.06391e-05 0.0028866 0.00606385 0.00448062 0.0100312 -0.013178 -0.000614623 -0.0222553 -0.0184451 -0.0389455 0.0131471 0.00902323 -0.00698261 -0.0382931 -0.0893527 -0.0212243 0.0180854 0.0139463 -0.0173877 -0.0408778 -0.0804663 -0.0645 -0.0385374 -0.018609 -0.0385664 -0.0169929 -0.0147263 0.00239616 0.0113509 0.00556701 0.00754127 -0.000553859 -0.0165849 -0.0488168 -0.0430258 -0.0504245 -0.00608218 -0.0304936 -0.0337467 -0.0641218 -0.0705943 0.00648203 -0.130596 -0.00853921 0.0280817 -0.0292974 -0.00781765 -0.107749 -0.105332 -0.0785485 -0.0514137 -0.0733723 -0.057255 -0.0234143 -0.0037498 0.00183847 0.00055429 0.0028866 0.0039042 -0.00328719 -0.00666889 -0.0537253 -0.0718427 -0.0642264 -0.034139 -0.088651 -0.102007 -0.0857742 -0.0620526 -0.0782502 -0.0680057 -0.0253463 0.0687408 0.0469321 0.00675466 -0.0815471 -0.103631 -0.0910907 -0.0345004 -0.0615757 -0.0524531 -0.0308751 -0.000475521 -0.00799182 -0.00457735 0.0043299 0.00125884 0.00514949 -0.00240374 -0.0580392 -0.0907578 -0.101368 -0.11223 -0.0983343 -0.097909 -0.0901528 -0.0423283 -0.0117044 -0.0411532 -0.00992942 0.0440764 0.0547525 -0.05473 -0.0573521 -0.0689785 -0.0349075 -0.0106026 -0.0483386 -0.0371716 -0.033387 -0.0022861 0.00402731 0.00959718 0.00804124 0.0103043 0.00962789 -0.000715518 -0.0365922 -0.0538233 -0.0639668 -0.0640226 -0.0957398 -0.0285657 -0.0608153 0.0145495 0.0295439 -0.0499854 -0.0113616 0.0172971 0.050325 0.0377741 -0.000936825 -0.0234799 -0.027713 -0.0123744 0.0188482 -0.00101098 0.0048941 0.0230319 0.0201317 0.00335689 0 0.00814269 0.0062103 0.0204678 -0.0312704 -0.0275725 -0.0512486 -0.0523796 -0.074697 -0.00651112 0.0221667 0.0400312 0.0144208 0.0187181 -0.00488101 -0.0285786 0.0414233 0.0120623 0.0285268 0.0425351 0.0292895 0.00481126 0.0260849 0.0251309 0.04039 0.0401481 0.0183691 0.00871771 0.00628866 0.000538138 0.00434665 0.00901854 -0.00100801 -0.0127165 -0.050617 -0.0429888 -0.00187462 0.0163515 0.0720539 0.0421093 0.0275846 0.034229 0.0758746 0.0395124 0.0416957 0.0840573 0.0961366 0.123948 0.0705654 0.0632914 0.0506779 0.0493525 0.0491289 0.0286657 0.0182299 0.00296406 0.0056701 0.000331952 0.00227151 0.00896576 0.00724148 -0.0146207 -0.0342938 0.0262585 0.00914003 -0.00244466 0.0696509 0.0283054 -0.00340595 0.00779741 0.091238 0.0500174 0.0639965 0.0700791 0.115207 0.0588976 0.0649117 0.0536973 0.041368 0.0486344 0.0358748 0.0443149 0.0265163 0.00275965 0.00402062 0.00335474 -0.000108556 0.0162162 0.00555086 0.0107711 -0.00188968 -0.00106966 0.0382988 0.0423806 0.0199504 0.00354427 -0.053677 0.0236767 0.0767905 0.0627694 0.0638677 0.0626015 0.0555936 0.0654042 0.0140669 0.0459618 0.0256446 0.0587391 0.0374042 0.0475097 0.0254264 -0.000622243 0.00546392 0.00889908 0.000869797 0.0258347 0.0344627 0.0388446 0.0078723 -0.000309317 -0.0135185 -0.00496915 -0.0364088 0.00551349 -0.0505305 0.00506173 0.0387793 0.0336957 0.0184466 0.021144 0.0281612 -0.0178063 -0.0123544 -7.05557e-05 -0.0124042 0.0224124 0.0486452 0.0395349 0.00835319 0.00354088 0.000721649 0.00150703 0.00391238 0.0203083 0.0212613 0.00938111 0.00482836 -0.0071696 -0.00966171 -0.0214979 -0.0562306 -0.0452324 -0.0200251 -0.0218795 -0.0162609 0.0160979 -0.0311749 -0.011527 -0.052039 -0.0529265 -0.0769916 -0.0305202 -0.0326347 -0.0216482 0.0171946 -0.00360239 0.0116569 0.00249896 0.00639175 0.00223835 0.00909572 0.00896054 0.0129253 0.0112793 -0.0108995 -0.0331445 -0.0758413 -0.0792727 -0.0595743 -0.0249104 0.000119751 0.00890944 -0.0418595 0.00824442 -0.0420234 -0.0777622 -0.0387123 -0.079721 -0.0979565 -0.0680671 -0.0468379 -0.0207826 0.00386524 0.00113092 0.00684178 0.00804124 0.00835052 0.000927835 0.00754569 0.0035877 0.0133806 0.010551 -0.0321438 -0.023887 -0.0217722 -0.0872835 -0.0513097 -0.0485603 0.0216226 -0.019611 -0.0148351 -0.00362775 -0.0433395 -0.0722216 -0.0519999 -0.04322 -0.0725119 -0.0729316 -0.0189432 -0.0162473 -0.00281107 -0.00592003 0.00276589 0.00247423 0.00608247 0.00587629 0.00671893 0.000820234 -0.00215689 -0.00771277 -0.0324967 -0.0409012 -0.0427414 -0.0215737 -0.0257624 -0.0484924 0.0041997 -0.0146832 -0.0202459 -0.0510353 -0.0246166 -0.0011515 -0.0881352 -0.0479224 -0.0569802 -0.0316391 -0.0209475 -0.0273238 -0.0103157 0.00028627 -0.00130212 0.00752577 0.00360825 0.00556701 0.00809699 -0.00574122 -0.00238059 -0.00409561 -0.0209638 -0.0519276 -0.0693088 -0.0559375 -0.030303 -0.0324462 0.0111008 0.00858859 -0.00869669 -0.0215661 -0.00729682 -0.0204615 -0.038237 -0.0531368 -0.0255837 -0.0266024 -0.0198621 -0.0404428 -0.00559825 0.00310714 0.00156661 0.00515464 0.00927835 0.00453608 0.00712883 0.00140035 -0.000202139 -0.00728075 -0.0226092 -0.0354483 -0.0423292 -0.0692377 -0.0664857 0.00767556 -0.0228877 0.0050556 -0.00488293 0.000498782 0.0218887 0.00999993 -0.00726111 -0.0242061 -0.0318227 -0.0237128 -0.0307237 -0.0110661 0.00434084 0.00677598 0.00422501 0.0014433 0.0057732 0.00731959 0.0012413 0.00412394 -0.000472586 0.00669161 0.00296261 -0.0187653 -0.0177562 -0.0363427 -0.012408 0.00858406 -0.038451 -0.00227631 0.0202025 0.0562268 0.0261046 0.00818855 -0.0354828 -0.0574843 -0.0484468 -0.0299172 -0.004601 0.00415502 0.0111713 0.0117015 0.0104644 0.00742268 0.00391753 0.00164948 0.00113402 0.00538242 -0.00108349 0.00453951 0.000919053 -0.00467857 -0.0152964 -0.0191231 -0.00118552 -0.00535854 -0.0143578 -0.013326 -0.0354119 -0.046298 -0.0274854 -0.0356129 -0.0285409 -0.0190761 -0.0182677 -0.0178254 -0.00208991 0.00163554 0.00694231 0.0085567 0.00701031 0.00402062 0.00773196 0.00515464 0.00845361 0.00804124 0.00515464 0.00250929 0.00089111 0.00470951 0.00598128 0.00902777 0.0170474 0.00586158 0.0121676 0.00512485 -0.00184118 -0.00579664 -0.00420393 0.00119587 0.00397832 0.00404319 0.00411407 0.00267633 0.000711335 0.00866204 0.00762887 0.00298969 0.00216495 0.00680412 0.00546392 0.00164948 0.000618557 0.000927835 0.00989691 0.000206186 0.00350515 0.00597938 0.000206186 0.00762887 0.00618557 0.00896907 0.00391503 0.00556452 0.00206186 0.0101031 0.00824742 0.00670103 0.00536082 0.00824742 0.00134021 0.00938144 0.00876289 0.000103093 0.00814433 0.00175258 0.00247423 0.00907216 0.00731959 0.000618557 0.01 0.000618557 0.00371134 0.00521324 0.0100078 0.00938927 0.00692847 0.00189061 0.00466335 0.00748413 0.000427266 0.00361439 0.00493607 0.00807703 0.00876783 0.00570595 0.0015129 0.00347581 -0.000365474 0.00927331 0.0026216 0.00930093 0.00237113 0.0056701 0.000103093 0.00948454 0.00793814 0.00824742 0.00123711 0.00432494 0.0033971 0.0020056 0.00165888 -0.000911021 0.00264434 0.00387483 0.00684328 0.0133397 0.00764813 0.00623062 0.0110972 0.0104766 0.00736229 0.00362181 -0.00575643 -0.00585827 0.00146727 0.00536751 -0.000701671 0.0102568 0.00595261 0.00549068 0.00845361 0.00783505 0.0102062 0.00154639 0.00297384 0.0080318 0.00576785 0.004227 0.00399021 0.000135915 -0.00601614 0.000549392 0.00907136 0.00674772 0.0310869 0.0179827 -0.00257674 -0.0103412 0.00271747 0.00133309 -0.0144565 -0.0335326 -0.0189928 -0.000557523 -0.00258725 -0.002841 0.00594259 0.00184924 0.003088 0.00278351 0.0057732 0.00814433 0.0107082 0.00928273 0.0100438 0.00774858 0.00537168 0.0124462 0.0173212 0.0173208 0.0158667 0.00798784 0.024888 0.0108277 0.0194082 0.0133979 0.0248769 -0.00706485 0.0141899 0.00977082 -0.00721349 -0.00783238 -0.0122984 -0.024346 -0.0269585 -0.0347294 -0.00153061 -0.00283291 0.00546392 0.000824742 0.00173915 0.00707367 0.0123052 0.00827451 0.0132412 -0.0215242 -0.0600357 -0.0617459 -0.0470438 -0.0136128 -0.00609095 -0.0229728 -0.0641023 -0.0107682 -0.0229447 -0.00642251 0.010257 0.00622061 0.0342652 0.00234886 0.00167146 -0.0227909 -0.032185 -0.00770101 4.57827e-05 0.00448668 0.000206186 0.00350658 0.000984777 0.00869763 0.00620733 -0.000998227 -0.0115384 -0.0253113 -0.07177 -0.0577433 -0.0388189 -0.0333757 -0.01836 -0.0450699 -0.0497531 -0.0476861 -0.0480627 -0.00988726 -0.0284851 0.0171832 -0.0295848 -0.0383374 -0.0285408 -0.0268606 -0.0179702 -0.0106338 0.00673747 0.00532937 0.00536082 0.00376446 0.003799 0.0111943 0.00305399 -0.0112907 -0.00899043 -0.0227925 -0.0814248 -0.0457847 -0.00296174 -0.00958275 -0.0242829 -0.0178328 -0.0429857 -0.0117725 -0.0251992 -0.0341601 -0.0397416 0.0303609 -0.0228911 -0.0388216 -0.0089624 -0.00672061 -0.0314528 -0.0152369 0.00418547 0.00565546 0.00966081 0.00967363 0.00302352 0.00902179 -0.000169843 0.0042434 -0.00304659 -0.0149297 -0.0191955 0.00835055 0.0101845 -0.012021 -0.0921687 -0.057086 -0.0404031 -0.0115672 -0.0204609 -0.0388457 -0.0167277 -0.0124184 -0.00721056 -0.0531761 -0.0179141 -0.0244211 -0.0329522 -0.019814 0.00721178 0.00342675 0.0028866 0.00325415 0.0109538 0.00610284 0.013155 0.00876482 0.0247976 0.0066377 -0.00609802 -0.00303248 -0.00994077 -0.0306116 -0.0857572 -0.0810458 -0.046084 -0.0352093 0.0187923 0.00610077 -0.0417923 -0.035581 -0.0396733 -0.0436232 0.00687744 -0.0143032 -0.0420402 -0.0244691 0.00578535 0.00574307 0.00907216 0.00273273 0.00641598 0.0101384 0.0094075 -0.00704763 0.00172671 0.00611767 0.00291916 -0.0099794 -0.00432435 -0.052474 -0.0562479 -0.0893164 -0.0221329 0.00756549 0.00629506 -0.0284447 -0.033171 -0.00213242 -0.0690913 -0.0489259 -0.0240575 -0.0177529 -0.0422097 -0.0117955 0.00519935 0.00942171 0.00659794 0.00725025 0.00936205 0.00723832 0.00877712 -0.0156915 -0.0139507 -0.00158946 -0.0273767 -0.0348413 -0.0370573 -0.0604346 -0.090065 -0.0333906 0.0278156 0.0413275 -0.00333989 -0.052532 -0.0444388 -0.0389533 -0.0513836 -0.0483019 -0.0300467 -0.0177502 -0.0224416 -0.00142433 0.0117382 0.0125923 0.00608247 0.00478838 0.00453512 0.00381476 -0.00574423 -0.0280357 -0.0504992 -0.0493547 -0.062899 -0.0716255 -0.106039 -0.0784875 -0.0625271 0.0336244 0.0433505 0.0390043 -0.022427 -0.0561247 -0.0653087 -0.0679559 -0.0526195 -0.0296226 -0.0171952 -0.00682367 -0.0130927 0.0251776 0.0250309 0.0100661 0.00505155 0.00807641 0.00696512 0.000527479 -0.0123178 -0.0467322 -0.0653684 -0.078666 -0.0684619 -0.0683786 -0.0825379 -0.0348067 0.0514483 0.0539742 0.0554192 0.0149911 -0.0304905 -0.0572646 -0.0930626 -0.0832218 -0.0436618 -0.0384177 -0.0221466 0.00925632 0.0358221 0.0432681 0.0368827 0.00594051 0.00618557 0.004102 0.00731475 0.0043495 -0.0132439 -0.0313136 -0.0679081 -0.0692025 -0.0443582 -0.06593 0.00664655 -0.0128559 0.0736962 0.076188 0.0791109 0.0384762 -0.00675746 -0.0203926 -0.0871747 -0.064151 -0.0542423 -0.0172789 -0.000661453 0.0164865 0.0392895 0.0514836 0.026604 0.0121261 0.00773196 0.000547223 0.0111446 0.00052148 -0.0206807 -0.0251136 -0.0664145 -0.0329149 -0.0617651 0.00788065 0.0662652 0.0848275 0.0623134 0.0840369 0.0733269 -0.0164251 -0.0791001 -0.0790176 -0.102439 -0.0756708 -0.0412417 -0.00710495 0.0239664 0.03568 0.0265946 0.0329127 0.0303694 0.00918773 0.00185567 0.0101349 0.00629661 0.00171125 -0.012516 -0.0208506 -0.0604949 -0.0428091 0.0333353 0.0876307 0.10923 0.102199 0.0499096 0.0952586 0.0355004 -0.0775661 -0.037694 -0.0654962 -0.0769424 -0.0623292 -0.0406435 -0.0394446 0.0116993 0.0411018 0.0385971 0.054616 0.0293113 0.0102083 0.00793814 0.000187173 0.00738305 0.0037163 -0.00913148 -0.0244727 -0.0391274 -0.038011 0.0168337 0.0999803 0.103492 0.0357071 0.0282413 0.053388 -0.0222611 -0.0912566 -0.102522 -0.0810333 -0.0801889 -0.0588688 -0.0509411 -0.0450617 0.00448315 0.0138415 0.0128412 0.0376229 0.0218731 0.0121955 0.00268041 0.00592861 0.0070577 0.0098151 0.00406541 -0.0226864 -0.0523198 0.00769504 0.0519822 0.0838813 0.0485351 -0.00129455 -0.0313729 -0.0513445 -0.112002 -0.119799 -0.108662 -0.057951 -0.0343152 -0.00850733 0.0105357 -0.00682878 0.0172999 0.0318943 0.030387 0.0407526 0.00786149 0.00928446 0.00556701 0.0067629 0.00141516 0.012601 0.00284767 0.0113971 -0.0141833 0.0142457 0.0422185 0.0583732 0.0126825 -0.0122095 -0.0742948 -0.053449 -0.095738 -0.135112 -0.0740366 -0.054617 -0.0229789 0.00500424 0.00669898 -0.00154048 0.00792909 0.0282293 0.0206142 0.0229774 0.00700468 0.00244275 0.00360825 0.00507054 0.00488552 0.0145998 0.015928 0.0161878 0.00715884 0.0199308 -0.0101739 0.0157701 -0.010615 -0.0506414 -0.0668356 -0.0509511 -0.104211 -0.113528 -0.0539954 -0.0477446 0.00687848 0.0428723 0.0290361 -0.0123819 -0.000206675 0.0165724 0.0155685 0.0199844 0.00842336 0.000824742 0.000824742 0.00958763 0.00464571 0.00927816 0.0218849 0.0160474 0.0131292 0.0143053 -0.00515385 0.0181232 -0.0580396 -0.0550234 -0.0554839 -0.0856928 -0.0695529 -0.0759693 -0.0515625 0.0283713 0.0153108 0.0458282 0.0217616 -0.000716054 0.00626417 0.00801499 0.0117353 0.0131364 0.00790773 0.00453608 0.00247423 0.000515464 0.0067509 0.00851466 0.00906622 0.0215656 -0.00890396 0.0254091 0.0292713 0.0152356 -0.0716311 -0.0538685 -0.08005 -0.0822674 -0.038314 0.00747338 -0.017215 0.033641 0.0295832 0.0433361 0.0370176 0.00714893 0.0116949 0.0180964 0.0169138 -0.0019894 0.00652508 0.00680412 0.0056701 0.00824742 0.00710099 0.00689234 0.00265577 0.0262295 0.00391263 0.00225963 0.0233937 -0.0271461 -0.0398282 -0.0455116 -0.0351837 -0.0451533 0.0157694 -0.0303116 -0.0321584 -0.0026569 0.0352609 0.00246424 0.00750944 0.0156358 0.00695403 -0.0106083 0.00437354 0.0106641 0.00798512 0.00237113 0.00927835 0.00865979 0.00913745 0.0031996 -0.0150834 -0.0045987 -0.00176515 -0.0337296 -0.00988744 -0.0283082 -0.00980225 -0.0273253 -0.0224884 -0.0162202 -0.00791522 -0.0153836 -0.00346236 -0.0170844 0.00517753 -0.0131758 -0.00395965 -0.00664855 -0.0100376 -0.00536818 0.00612478 0.0154194 0.0172733 0.00618557 0.00546392 0.00391753 0.0027938 0.00434896 -0.00339134 -0.0152952 -0.00778257 -0.00795107 -0.00632077 -0.00746199 -0.00605287 -0.00978311 -0.0071088 0.0184123 0.00221847 0.00473783 0.00487293 0.00555019 -0.00281088 -0.00847968 -0.0143113 -0.00693315 -0.0088444 -0.00900513 0.00965959 0.012659 0.00667961 0.0057732 0.0085567 0.0057732 0.000515464 0.00583975 0.00852047 0.0058105 0.00685182 0.00182288 0.00631909 0.00432165 -0.00249832 -0.00285492 0.000773069 0.00100751 -0.00117598 -0.0113653 -0.00701604 -0.00980769 0.000149283 0.00365162 0.00975552 0.00612469 0.00589679 0.00267665 0.00782083 0.00463918 0.00979381 0.00402062 0.00721649 0.00835052 0.00350515 0.00505155 0.00546392 0.00792319 0.00309137 0.00102141 -4.60331e-05 0.00648334 0.000877141 0.00528677 0.00463714 0.00366445 0.00193167 -0.000813171 0.000150582 -0.00105367 0.00766686 0.00636402 0.000614772 -0.00110435 0.00256842 0.00652929 0.00587629 0.00628866 0.00762887 0.00958763 0.00443299 0.0102062 0.00164948 0.0043299 0.00329897 0.00247423 0.00298969 0.00783505 0.00237113 0.00907216 0.00876289 0.00845361 0.000794931 0.00378462 0.00505155 0.00989691 0.00185567 0.00824742 0.00639175 0.00731959 0.000721649 0.00927835 0.00463918 0.00670103 0.00670103 0.00845361 0.00556701 0.00979381 0.00731959 0.00453608 0.00701031 0.00731959 0.0101031 0.00611459 0.00809228 0.00365929 0.00434452 0.00813803 0.004031 0.00862752 0.00974448 0.00416644 0.0113243 0.00550573 0.00945323 0.00589977 0.0095159 0.00649378 0.00197148 0.006184 0.010524 0.00770253 0.00752577 0.00525773 0.0056701 0.00835052 0.00350515 0.00546392 0.000618557 0.0027079 0.000130576 0.00349573 0.00897024 0.00835675 0.00657063 0.0107121 0.00812293 0.0127865 0.00563143 0.00347871 0.00814667 0.0037611 0.00124822 0.00223734 0.00375621 0.00817536 0.00103049 0.00276165 0.00719896 0.00616508 0.0079696 0.000654462 0.00329897 0.00134021 0.00164948 0.00618557 0.0026465 0.000431726 0.0100117 0.00771932 0.0120051 0.00471785 0.0118105 0.0158366 0.012087 0.0107078 0.0142512 0.00553273 0.00385606 -4.10409e-05 0.00952679 0.00670926 0.00898838 0.00276715 0.005493 0.00848746 0.00800028 0.00470665 0.00755002 0.00479611 0.00441969 0.00639175 0.00731959 0.000103093 0.00841625 0.00708098 0.00337608 0.00211129 0.00583329 0.000667306 0.00582394 0.00284136 0.000299409 -0.00416809 -0.012123 -0.0132738 -0.0180227 -0.0449332 -0.0306565 -0.0407689 -0.0336601 -0.0244157 -0.000864264 0.00319549 0.0064595 -7.32953e-05 -0.000678718 0.00650605 0.00726395 0.00366574 0.000515464 0.00649485 0.00666367 0.000117829 0.00528363 0.00362771 0.00976294 -0.0010129 -0.0104025 -0.0207872 -0.00937511 -0.0136403 -0.012221 -0.0283495 -0.0606804 -0.0626016 -0.053205 -0.0553346 -0.0547069 -0.0429116 -0.0204712 -0.011281 -0.00929238 -0.00868246 -0.00636985 0.00671387 0.00848193 0.00263482 0.00474227 0.00980843 0.00328896 0.0121431 -0.0020909 -0.00545546 -0.00138936 -0.0253874 -0.0321605 -0.0160824 -0.00720814 -0.021205 -0.00242609 -0.0388829 -0.0419212 -0.0567997 -0.0595485 -0.0425702 -0.0606788 -0.0477434 -0.0582106 -0.0522539 -0.0238665 -0.0184206 -0.0102695 -0.000685253 -0.00167342 0.00170609 0.00927835 0.00982293 0.00772418 0.0129204 -0.0055101 -0.0174077 -0.0176458 -0.0160233 -0.0246114 -0.00566765 0.00929896 -0.0375409 -0.044105 -0.039631 -0.0380067 -0.0479612 -0.0647497 -0.0559736 -0.0400034 -0.0507345 -0.0489349 -0.0445398 -0.0241396 -0.00731329 -0.00841961 0.00613415 0.00591889 0.000351042 0.00431622 0.0111081 0.00755703 0.0125607 0.00321406 -0.0178575 -0.0130701 -0.00198525 -0.0179921 0.0151441 0.0190776 -0.0202917 -0.0466088 -0.0358736 -0.017689 -0.0440565 -0.0629699 -0.0698329 -0.0468449 -0.0579842 -0.0394316 -0.042991 -0.0109421 -0.00424001 -0.0106531 -0.0028832 -0.00303981 0.00245005 0.00587629 0.00510291 0.00813306 0.0117318 0.00292465 -0.000491037 0.00842065 0.00812385 0.00323381 0.00615275 -0.0149328 -0.0259167 -0.0247214 -0.0306854 -0.0240036 -0.0470904 -0.0415754 -0.0542779 -0.0669315 -0.0597939 -0.0486401 -0.0241931 -0.0103377 -0.00788821 -0.00239985 -0.00482044 0.0104061 0.0111946 0.00608247 0.00292846 0.0104072 0.00645316 0.00425244 -0.00825008 0.0284759 0.0146877 -0.00172566 -0.0280062 -0.0088049 -0.0120626 -0.0228279 -0.016838 -0.0161543 -0.0250868 -0.0374303 -0.0407225 -0.0321867 -0.0205884 -0.0501568 -0.0252346 -0.0227264 0.00240925 -0.00268678 0.0117367 0.00454722 0.00614136 0.00278351 0.00599402 0.0138758 0.0130207 0.0155974 -0.00985623 0.0188096 0.0195697 -0.0369081 -0.021306 -0.0315845 -0.0296242 -0.0445005 -0.0404111 0.0107423 0.00416094 -0.00956604 -0.00509258 -0.0297911 -0.0124422 -0.0366572 -0.0277239 -0.0226127 0.00170646 0.00241285 0.0143697 0.00637327 0.0077508 0.00164948 0.00771188 0.00655219 0.0138355 0.00654542 -0.00978868 0.00472462 -0.0345928 -0.0406114 -0.0526332 -0.0386151 -0.0293915 -0.0484766 -0.0362223 0.0184526 -0.000723569 -0.028954 -0.0338978 -0.038854 -0.0398861 -0.0426839 -0.0302291 -0.0287789 0.0031879 0.00951486 0.0122389 0.0130646 0.0107972 0.00237113 0.0017472 0.00561008 0.0061017 -0.00814914 0.000260965 -0.00757528 -0.0326353 -0.030238 -0.0245416 -0.0303119 -0.0122381 -0.0178425 -0.0302035 -0.0108763 -0.0182138 -0.0381447 -0.0420434 -0.0523373 -0.0258636 -0.0246965 -0.0284804 -0.0231697 0.0142279 0.0231914 0.0263013 0.0147256 0.00893532 0.00649485 0.000711574 0.0109449 0.00168529 -0.00100903 -0.00199796 -0.0128232 -0.0312157 -0.0247311 -0.0296992 0.00461196 -0.0189874 -0.0332515 -0.0451445 -0.0374031 -0.0391048 -0.0310903 -0.0244321 -0.0230656 0.00742563 -0.0134624 -0.0074239 -0.00341712 0.027422 0.0260862 0.0329021 0.0110072 0.00244047 0.000927835 0.00730481 0.00527675 0.00104942 0.00121723 -0.00145493 -0.0401986 -0.0291999 -0.0438787 -0.0215332 0.00529637 0.00708345 -0.0346439 -0.0618807 -0.0332503 -0.0298918 -0.0372345 -0.0122008 0.00989264 0.0144498 0.00603495 0.0140031 0.00616439 0.024518 0.0208988 0.0258007 0.0151557 0.0103012 0.0085567 0.00678935 0.00582036 0.00817674 -0.00379102 0.00157159 -0.0224045 -0.0276986 -0.00899362 -0.0106852 0.00712272 -0.00517148 -0.0338133 -0.0423569 -0.0171903 -0.0310939 -0.023354 0.0069761 -0.00880833 0.00261921 0.00518954 0.00712628 0.0129858 0.0310609 0.021838 0.0229387 0.0203696 0.00587968 0.0101031 0.00390928 0.00692493 0.00857712 0.00388631 0.00761616 -0.0299088 -0.0301592 -0.0206997 0.01706 0.00706387 -0.0229139 -0.0335259 -0.0277157 -0.0133728 -0.0369355 -0.0382903 -0.0511959 -0.0201286 -0.0289192 -0.0144952 -0.020715 0.0153513 0.00844422 0.00605873 0.0127945 0.0109896 0.000690832 0.00969072 0.00990344 0.00926448 0.00329491 0.00620813 0.00770637 -0.0340133 -0.0303413 -0.0395414 -0.0038309 -0.0143086 -0.0232185 -0.0300412 -0.0327296 -0.0271847 -0.0355626 -0.040697 -0.0473979 -0.0303873 -0.022873 0.0145359 -0.00137234 0.0111301 0.00860112 0.00619046 0.00956181 0.00770331 0.00894707 0.00690722 0.00488215 0.0111531 0.00516486 0.0108509 0.00867132 -0.0285388 -0.0301454 -0.0335622 -0.011551 -0.0156562 -0.0355313 -0.0182782 -0.0236213 -0.0260699 -0.056196 -0.0544185 -0.044031 -0.0435566 -0.0136356 -0.00379025 -0.0115457 -0.00767921 -0.000424228 0.00218718 0.0123609 0.0109116 0.00795027 0.00391753 0.00937938 0.0104138 0.00246267 0.0104693 0.00847854 -0.0335697 -0.034 -0.0321353 -0.0421731 -0.0443995 -0.0420528 -0.0507343 -0.0422269 -0.0508843 -0.0562696 -0.0436009 -0.049913 -0.0533934 -0.0247182 -0.00368169 -0.0144616 -0.00529483 0.0033574 0.0041833 0.00931933 0.00283189 0.00360825 0.00134021 0.00123711 0.00668421 0.00824214 0.0122319 0.00472011 -0.0242041 -0.0244381 -0.034281 -0.026665 -0.0426766 -0.033343 -0.0374089 -0.0521546 -0.0552356 -0.064984 -0.0736196 -0.0353003 -0.0318024 -0.0350131 -0.0116022 -0.0201848 -0.011779 -0.0046141 0.000530727 0.0125058 0.00897282 0.00206186 0.00474227 0.00257732 0.00363345 0.000612113 0.00654588 0.00753492 -0.0137402 -0.0181729 -0.0309853 -0.0251086 -0.037548 -0.0476373 -0.0531885 -0.0532711 -0.0491796 -0.0310687 -0.0321293 -0.0465301 -0.0191816 -0.0214655 -0.0130262 -0.00648389 -0.0131828 0.00410335 0.00633416 0.0047776 0.00968206 0.00814433 0.00247423 0.0056701 0.000514056 0.00772849 0.00672238 0.0151723 0.011834 -0.0137959 -0.018526 -0.0217393 -0.0388614 -0.0490712 -0.0543613 -0.0626762 -0.0311146 -0.0351144 -0.0478812 -0.0474859 -0.0274743 -0.0211939 -0.0121967 -0.00447091 -0.00491221 0.000679638 0.0141065 0.00811433 0.00797988 0.00391753 0.00824742 0.0014433 0.00829518 0.00705538 0.00980694 0.0168144 0.0113225 0.018176 0.00888682 -0.00169705 -0.00692071 -0.00544151 -0.0180816 -0.0227153 -0.00752524 -0.0240787 -0.0339686 -0.0245529 -0.00500772 -0.0129164 -0.0098355 -0.00606685 -0.00529155 -0.00396137 0.00594617 0.00308576 0.00333084 0.00525773 0.00402062 0.00773196 0.00377975 0.00645587 0.0103663 0.0131806 0.0113425 0.0159808 0.00640447 -0.00101278 0.0171088 0.0116232 0.00555328 0.0128628 0.0141669 0.00681747 0.0110347 0.0154608 0.00377264 0.0171471 0.0109781 0.0144669 0.00537943 0.00309553 0.00399908 0.00358651 0.00152466 0.00731959 0.00329897 0.00814433 0.00917526 0.00495974 -0.000766281 0.00471158 0.00834545 0.0106687 0.00979255 0.0141372 0.0115281 0.0170896 0.0241726 0.0213597 0.025715 0.0215269 0.0127817 0.0110258 0.0217982 0.0229159 0.0236601 0.0109751 0.00933354 0.00519108 0.00372551 0.000927835 0.00185567 0.000618557 0.0028866 0.00154639 0.00731959 0.00804124 0.00525773 0.00908498 0.00931872 0.00139963 0.00482035 0.00347732 0.00473766 0.0068169 0.013814 0.00674651 0.00690345 0.00945733 0.00945325 0.00338676 0.00855097 0.00234108 0.00716101 0.00157028 0.0109434 0.00694344 0.00226804 0.000515464 0.00824742 0.00927835 0.00865979 0.00721649 0.00113402 0.00989691 0.00443299 0 0.00896907 0.00185567 0.00453608 0.00226804 0.00453608 0.00670103 0.00634692 0.000676822 0.00628866 0.00206186 0.00247423 0.000412371 0.00814433 0.00907216 0.01 0.000824742 0.00628866 0.00216495 0.000412371 0.00814433 0.00525773 0.00938144 0.00226804 0.00989691 0.00391753 0.00701031 0.0101031 0.00308825 0.00199641 0.00498611 -0.00139481 0.00120597 0.00567779 0.00624223 0.00836704 -0.00351436 -0.00979389 -0.0120722 -0.0164421 -0.00323757 0.00876081 0.00485042 0.00838527 0.00467605 0.0035486 0.00753679 0.00948454 0.00154639 0.00804124 0.00247423 0.00329897 0.00907216 0.000309278 0.00560732 0.0088032 0.00276849 0.00845091 0.00603312 0.0293465 0.0220596 0.0338589 -0.0218981 0.00132295 -0.0242417 -0.0527669 -0.00977196 -0.0626696 -0.0808203 -0.0508125 -0.0194571 -0.0237576 -0.00244391 0.00190565 0.00240845 0.00289544 0.00671648 0.00886598 0.0085567 0.00546392 0.00824742 0.00849653 0.00890629 0.00472917 -0.0112139 -0.00517071 -0.0384622 -0.0560504 -0.0769388 -0.0180069 -0.0901538 -0.0737021 -0.215955 -0.318525 -0.236105 -0.242415 -0.190628 -0.268548 -0.227799 -0.161671 -0.11755 0.0310163 0.105715 0.0399687 0.0122275 0.0115021 0.00340206 0.00752577 0.00608247 0.00517922 0.0078343 -0.00350653 -0.0151237 -0.0250398 -0.0261008 -0.0803514 -0.19822 -0.223059 -0.167974 0.274476 0.213933 -0.0792905 0.0809942 -0.0154198 -0.205681 -0.16855 0.0904087 -0.121748 -0.114234 0.0310312 0.0228683 -0.0320245 -0.0790829 -0.0241898 -0.0342933 0.00649485 0.00350515 0.00610706 0.00285464 -0.012587 -0.0409356 -0.193866 -0.257952 -0.35645 -0.379896 -0.106327 0.23049 0.0420642 -0.366466 -0.195391 -0.039553 -0.148788 -0.0899785 0.390502 -0.00384327 0.109331 0.197566 0.499466 0.0717724 -0.187697 -0.0508906 -0.0601915 -0.036252 0.0057732 0.00887685 0.019671 -0.031976 -0.0389868 -0.309241 -0.346381 -0.398784 -0.394533 -0.219524 0.0178591 -0.210861 -0.428972 -0.0727306 -0.0329741 -0.420546 -0.234914 0.26904 0.0538112 0.315221 -0.0715091 0.202153 0.231352 0.0097665 -0.170987 -0.0515154 0.0124347 -0.0317494 0.00814433 0.0175947 0.0157328 -0.0207408 -0.0283181 -0.335498 -0.287816 -0.392432 -0.507098 -0.249255 -0.229528 -0.282779 -0.0573588 -0.246931 -0.193927 -0.156932 -0.0146159 -0.0220213 -0.0122091 0.174971 0.358834 0.350457 0.216952 0.0537067 -0.194284 -0.046763 -0.0123231 -0.0237139 0.0223746 0.0207636 0.0139764 -0.017932 -0.0863664 -0.196012 -0.236827 -0.175582 -0.162 -0.0842315 -0.113013 -0.0107679 -0.0209067 -0.185324 -0.16943 0.0589868 -0.12445 0.111397 0.135101 0.0627206 0.157158 0.216375 0.0270998 0.0889143 -0.117387 -0.0382664 0.00179934 0.00516831 0.00113402 0.00650401 0.0270047 0.0101994 -0.0955616 0.0778843 0.0104285 -0.252178 -0.144662 0.0229245 0.159246 0.082654 0.138241 0.0641238 0.0586862 0.2591 0.313256 0.309811 0.22654 -0.0351736 0.137987 0.0112455 0.0807236 0.15074 -0.113737 -0.0951105 0.0321208 0.000845899 0.00206186 0.00375463 0.0346487 0.0155589 0.0160326 0.0954723 0.110514 0.180597 0.0641368 -0.0738774 0.498686 0.627926 0.481075 0.318756 0.311728 0.496299 -0.00773058 0.210252 -0.222659 -0.16599 0.145624 0.409041 -0.192604 0.0341502 -0.174499 -0.0258402 0.029197 0.00676591 0.00195876 -0.0302153 0.0157853 0.0264648 -0.0285357 0.224319 0.482442 0.149373 0.294385 0.294528 0.687785 0.734018 0.415044 0.490638 -0.19155 0.0399292 -0.057923 0.0382275 -0.0745994 -0.137954 0.298821 0.523928 -0.169318 0.0927302 -0.157269 -0.0447676 0.0151847 0.0163052 0.00680412 0.00797782 -0.00163819 -0.0603442 -0.0628439 0.225852 0.278307 0.0166843 0.267456 0.640567 0.361869 0.659757 0.580483 -0.0822315 -0.598535 -0.469325 -0.607817 -0.421134 -0.246006 0.0286299 0.310797 0.313537 -0.151626 -0.146332 -0.116582 -0.061086 0.0134669 0.0191703 0.000618557 0.00670342 0.00243197 -0.0619204 -0.00365246 -0.00156772 -0.0262342 -0.0627748 -0.137651 -0.221096 -0.0386319 -0.493266 -0.43756 -0.747658 -0.913273 -0.795886 -0.153007 -0.124801 0.163004 0.101465 -0.182914 -0.253658 -0.125789 -0.123331 -0.0509509 -0.0451263 0.0218889 0.0106864 0.0014433 -0.00975132 -0.00406054 -0.0798243 -0.0676789 -0.214915 -0.278528 -0.515937 -0.697032 -0.617318 -0.574285 -0.821681 -0.708228 -0.512349 -0.393427 -0.207555 -0.0389994 0.0803552 0.175995 -0.200845 -0.364381 -0.104424 -0.139316 -0.177529 -0.127396 0.0130551 0.0544259 0.00594411 0.00350515 -0.00625051 -0.00792884 -0.0964189 -0.335377 -0.395311 -0.579233 -0.687011 -0.943272 -0.843355 -0.388019 -0.291681 0.0542682 -0.229485 0.113928 -0.22843 0.057733 -0.032241 -0.338177 -0.221171 -0.30838 -0.0859482 -0.09611 -0.142181 -0.0505756 0.0462066 0.0174058 0.0046107 0.00247423 -0.00295154 -0.00666888 -0.141372 -0.38602 -0.529074 -0.760668 -0.896436 -0.639242 -0.647438 -0.0924888 -0.0610658 0.238257 0.112587 0.0954097 -0.232794 0.0978709 -0.192514 -0.271133 -0.404407 -0.158052 -0.180163 -0.121877 0.0165795 -0.00639554 0.0691891 0.0350914 0.0108404 0.0085567 -0.00604598 -0.00668523 -0.0875346 -0.408931 -0.416384 -0.392567 -0.603114 -0.469542 -0.143014 0.0675218 0.455131 0.327234 0.14582 -0.0832099 -0.103153 0.0277918 -0.313417 -0.0315693 -0.0313125 -0.365694 -0.257555 0.0438755 0.0302419 0.00772221 0.124144 0.0409257 0.0174369 0.00762887 0.00494679 -0.00775891 -0.052649 0.0958016 -0.247265 -0.270571 -0.16558 -0.134025 0.335863 0.302875 0.167213 -0.0127274 -0.269277 -0.144739 -0.0311235 0.21689 -0.367949 -0.115828 -0.225867 -0.136206 -0.0861945 0.0235192 0.000642355 0.057574 0.126054 0.0325203 0.0206535 0.00278351 0.00820255 0.0570417 -0.0121776 0.0260875 -0.0621974 0.228773 0.151644 0.424063 0.570134 0.27714 0.398718 0.147489 0.306625 0.21027 -0.157533 0.0575492 -0.037266 0.2502 -0.199893 -0.0106276 0.0425054 0.114163 -0.113807 0.0524925 -0.0452264 0.0180113 0.00754423 0.0057732 0.00500809 0.0649332 -0.0263493 0.122465 0.0990928 0.172736 0.317505 0.26843 0.560715 0.419319 0.215381 -0.022641 0.0208565 -0.107843 0.0330324 0.349114 0.118414 0.382627 0.042822 0.0223346 0.188627 -0.0539248 -0.0535628 -0.000137794 0.00497791 0.0103261 0.00185567 0.00793814 0.00329897 0.0618662 0.0400492 0.291086 0.0393188 0.425968 0.121042 0.165088 0.364165 0.0605245 0.0792751 0.1486 -0.262787 -0.132102 0.0654074 0.13728 0.11345 0.40228 0.122824 -0.041391 0.063788 -0.0209714 0.010936 0.0550582 0.0380707 0.00545004 0.00237113 0.00515464 0.00979381 0.105627 0.125239 0.314263 0.338243 -0.120861 0.137272 0.196663 0.296109 0.110271 0.00755226 -0.17244 -0.456647 -0.0819426 -0.0413541 0.12129 0.38861 0.210622 0.271521 0.0421938 0.198916 0.145262 0.0900557 0.0638369 0.0392124 0.00544195 0.00948454 0.00206186 0.00525773 0.0101895 0.0344424 0.194923 0.144897 0.0576967 0.0802321 0.284564 0.547327 0.25526 -0.00101957 -0.338344 -0.467325 0.0119729 -0.0728602 0.190686 -0.0344513 0.378215 0.425098 0.0833615 0.0840518 0.0463925 0.0454269 0.0403597 0.0215521 0.00978606 0.00587629 0.00154639 0.00927835 0.00265278 -0.00837075 -0.130538 -0.00873646 0.209976 -0.0439289 0.0658364 -0.0168871 0.0072264 -0.115542 -0.182518 -0.132633 -0.26733 -0.227634 -0.15693 -0.011895 -0.0384111 0.081245 -0.0434264 -0.0490892 -0.0842009 0.0202184 0.0247819 0.0174082 0.00702303 0.000515464 0.00226804 0.00237113 0.0063965 0.00116979 -0.0304778 -0.0183638 0.0242411 0.00581255 -0.173019 -0.227772 -0.265436 -0.187326 -0.0398703 0.207397 0.0725061 0.0553635 0.0147773 -0.10694 -0.12944 -0.125699 -0.134953 -0.0911671 -0.0851922 -0.0213525 -0.00421054 0.00554721 0.00843381 0.00649485 0.0014433 0.00804124 0.0014433 0.00973912 -0.00325475 0.0400976 0.0116096 0.0395396 0.0556261 0.0140414 -0.0722011 -0.109689 -0.101394 -0.0335976 -0.100962 -0.135056 -0.0706864 -0.0697209 -0.0454603 -0.0143446 -0.0488732 -0.0713243 -0.0459134 0.0098045 0.00188075 0.00474227 0.00896907 0.00670103 0.00247423 0.000721649 0.00927835 0.00793814 0.00731959 0.00580623 0.00894279 0.00612923 0.00394841 0.0121243 0.0166277 0.0178756 0.0125193 0.0181246 0.0133791 -0.00947092 -0.0147188 -0.010384 -0.00740352 -0.011541 -0.0180469 -0.035244 -0.0107238 0.00864882 0.00546392 0.00463918 0.00556701 0.00505155 0.00340206 0.00154639 0.00103093 0.000721649 0.00701031 0.00154639 0.00670103 0.00175258 